{"learner":{"attributes":{"best_iteration":"566","best_score":"0.35620149730001455","scikit_learn":"{\"_estimator_type\": \"classifier\"}"},"feature_names":["right_ascens","declination","period","trans_duration","trans_depth","planet_radius","planet_insolation","planet_temp","stellar_temp","stellar_logg","stellar_radius","stellar_mass"],"feature_types":["float","float","float","float","float","float","float","float","float","float","float","float"],"gradient_booster":{"model":{"gbtree_model_param":{"num_parallel_tree":"1","num_trees":"667"},"iteration_indptr":[0,1,2,3,4,5,6,7,8,9,10,11,12,13,14,15,16,17,18,19,20,21,22,23,24,25,26,27,28,29,30,31,32,33,34,35,36,37,38,39,40,41,42,43,44,45,46,47,48,49,50,51,52,53,54,55,56,57,58,59,60,61,62,63,64,65,66,67,68,69,70,71,72,73,74,75,76,77,78,79,80,81,82,83,84,85,86,87,88,89,90,91,92,93,94,95,96,97,98,99,100,101,102,103,104,105,106,107,108,109,110,111,112,113,114,115,116,117,118,119,120,121,122,123,124,125,126,127,128,129,130,131,132,133,134,135,136,137,138,139,140,141,142,143,144,145,146,147,148,149,150,151,152,153,154,155,156,157,158,159,160,161,162,163,164,165,166,167,168,169,170,171,172,173,174,175,176,177,178,179,180,181,182,183,184,185,186,187,188,189,190,191,192,193,194,195,196,197,198,199,200,201,202,203,204,205,206,207,208,209,210,211,212,213,214,215,216,217,218,219,220,221,222,223,224,225,226,227,228,229,230,231,232,233,234,235,236,237,238,239,240,241,242,243,244,245,246,247,248,249,250,251,252,253,254,255,256,257,258,259,260,261,262,263,264,265,266,267,268,269,270,271,272,273,274,275,276,277,278,279,280,281,282,283,284,285,286,287,288,289,290,291,292,293,294,295,296,297,298,299,300,301,302,303,304,305,306,307,308,309,310,311,312,313,314,315,316,317,318,319,320,321,322,323,324,325,326,327,328,329,330,331,332,333,334,335,336,337,338,339,340,341,342,343,344,345,346,347,348,349,350,351,352,353,354,355,356,357,358,359,360,361,362,363,364,365,366,367,368,369,370,371,372,373,374,375,376,377,378,379,380,381,382,383,384,385,386,387,388,389,390,391,392,393,394,395,396,397,398,399,400,401,402,403,404,405,406,407,408,409,410,411,412,413,414,415,416,417,418,419,420,421,422,423,424,425,426,427,428,429,430,431,432,433,434,435,436,437,438,439,440,441,442,443,444,445,446,447,448,449,450,451,452,453,454,455,456,457,458,459,460,461,462,463,464,465,466,467,468,469,470,471,472,473,474,475,476,477,478,479,480,481,482,483,484,485,486,487,488,489,490,491,492,493,494,495,496,497,498,499,500,501,502,503,504,505,506,507,508,509,510,511,512,513,514,515,516,517,518,519,520,521,522,523,524,525,526,527,528,529,530,531,532,533,534,535,536,537,538,539,540,541,542,543,544,545,546,547,548,549,550,551,552,553,554,555,556,557,558,559,560,561,562,563,564,565,566,567,568,569,570,571,572,573,574,575,576,577,578,579,580,581,582,583,584,585,586,587,588,589,590,591,592,593,594,595,596,597,598,599,600,601,602,603,604,605,606,607,608,609,610,611,612,613,614,615,616,617,618,619,620,621,622,623,624,625,626,627,628,629,630,631,632,633,634,635,636,637,638,639,640,641,642,643,644,645,646,647,648,649,650,651,652,653,654,655,656,657,658,659,660,661,662,663,664,665,666,667],"tree_info":[0,0,0,0,0,0,0,0,0,0,0,0,0,0,0,0,0,0,0,0,0,0,0,0,0,0,0,0,0,0,0,0,0,0,0,0,0,0,0,0,0,0,0,0,0,0,0,0,0,0,0,0,0,0,0,0,0,0,0,0,0,0,0,0,0,0,0,0,0,0,0,0,0,0,0,0,0,0,0,0,0,0,0,0,0,0,0,0,0,0,0,0,0,0,0,0,0,0,0,0,0,0,0,0,0,0,0,0,0,0,0,0,0,0,0,0,0,0,0,0,0,0,0,0,0,0,0,0,0,0,0,0,0,0,0,0,0,0,0,0,0,0,0,0,0,0,0,0,0,0,0,0,0,0,0,0,0,0,0,0,0,0,0,0,0,0,0,0,0,0,0,0,0,0,0,0,0,0,0,0,0,0,0,0,0,0,0,0,0,0,0,0,0,0,0,0,0,0,0,0,0,0,0,0,0,0,0,0,0,0,0,0,0,0,0,0,0,0,0,0,0,0,0,0,0,0,0,0,0,0,0,0,0,0,0,0,0,0,0,0,0,0,0,0,0,0,0,0,0,0,0,0,0,0,0,0,0,0,0,0,0,0,0,0,0,0,0,0,0,0,0,0,0,0,0,0,0,0,0,0,0,0,0,0,0,0,0,0,0,0,0,0,0,0,0,0,0,0,0,0,0,0,0,0,0,0,0,0,0,0,0,0,0,0,0,0,0,0,0,0,0,0,0,0,0,0,0,0,0,0,0,0,0,0,0,0,0,0,0,0,0,0,0,0,0,0,0,0,0,0,0,0,0,0,0,0,0,0,0,0,0,0,0,0,0,0,0,0,0,0,0,0,0,0,0,0,0,0,0,0,0,0,0,0,0,0,0,0,0,0,0,0,0,0,0,0,0,0,0,0,0,0,0,0,0,0,0,0,0,0,0,0,0,0,0,0,0,0,0,0,0,0,0,0,0,0,0,0,0,0,0,0,0,0,0,0,0,0,0,0,0,0,0,0,0,0,0,0,0,0,0,0,0,0,0,0,0,0,0,0,0,0,0,0,0,0,0,0,0,0,0,0,0,0,0,0,0,0,0,0,0,0,0,0,0,0,0,0,0,0,0,0,0,0,0,0,0,0,0,0,0,0,0,0,0,0,0,0,0,0,0,0,0,0,0,0,0,0,0,0,0,0,0,0,0,0,0,0,0,0,0,0,0,0,0,0,0,0,0,0,0,0,0,0,0,0,0,0,0,0,0,0,0,0,0,0,0,0,0,0,0,0,0,0,0,0,0,0,0,0,0,0,0,0,0,0,0,0,0,0,0,0,0,0,0,0,0,0,0,0,0,0,0,0,0,0,0,0,0,0,0,0,0,0,0,0,0,0,0,0,0,0,0,0,0,0,0,0,0,0,0,0,0,0,0,0,0,0,0,0,0,0,0,0,0,0,0,0,0,0,0,0,0,0,0,0,0,0,0,0,0,0,0,0,0,0,0,0,0,0,0,0,0,0,0,0,0],"trees":[{"base_weights":[1.00582014E-7,4.6064964E-1,-1.7184132E0,7.801976E-1,-1.2098744E0,-8.1709045E-1,-1.8495715E0,9.263583E-1,-2.7439943E-1,-6.454347E-1,-1.5523461E0,-1.4651425E0,-2.474096E-2,-1.5670897E0,-1.9974363E0,-3.1920382E-1,1.0765928E0,-9.7891736E-1,-2.380129E-2,-8.3434945E-1,7.990036E-1,-1.2950174E0,-1.8119917E0,5.8156042E-3,-1.5929675E0,-7.04524E-1,7.338616E-1,-1.7772523E0,-1.0808916E0,-1.1110319E0,-4.048447E-2,1.9532208E-1,-1.610697E0,1.1315657E0,-6.511275E-1,-5.3486355E-2,-1.0954394E0,-3.13603E-1,4.1280478E-1,-3.062502E-1,-1.0889632E0,-2.0869352E-2,1.2603704E0,-1.4087851E0,-1.6826813E-1,-1.173295E-2,-1.8321481E0,-5.774123E-1,-1.7172059E0,-1.2163919E0,1.8629283E-1,1.159928E0,-2.6287926E-2,-1.8029661E0,-1.0125911E-2,-5.1142174E-1,-1.4973583E0,-1.4516064E0,1.2628006E-2,6.692904E-3,-2.3383657E-2,-3.4995165E-2,4.8016883E-3,2.5730584E-2,1.1052514E-2,-3.2017257E-2,1.1714667E-2,9.521486E-3,-2.2947868E-2,-2.4249133E-2,-1.0269028E-3,-1.3741933E-2,5.322148E-3,1.32605955E-2,-2.3859064E-3,3.9945105E-3,-3.2022294E-2,-3.57566E-2,-8.63633E-3,3.1168895E-2,4.8016883E-3,-2.4095597E-3,-3.0591292E-2,-2.6287926E-2,5.7960222E-3,-3.7849236E-2,-2.2871105E-2,7.2349194E-3,-2.2442369E-2,-5.159932E-3,-3.5609316E-2,-3.3053245E-2,-1.1968536E-2,1.905276E-2,-1.6284142E-2,-8.556349E-4,2.8352201E-2,-5.159932E-3,-3.6430053E-2,-1.1920985E-3,-2.6837284E-2,2.822027E-3,-3.256318E-2,-1.4284657E-2,-3.3805087E-2],"categories":[],"categories_nodes":[],"categories_segments":[],"categories_sizes":[],"default_left":[0,0,0,0,0,0,0,0,0,0,0,0,0,0,0,0,0,0,0,0,0,0,0,0,0,0,0,0,0,0,0,0,0,0,0,0,0,0,0,0,0,0,0,0,0,0,0,0,0,0,0,0,0,0,0,0,0,0,0,0,0,0,0,0,0,0,0,0,0,0,0,0,0,0,0,0,0,0,0,0,0,0,0,0,0,0,0,0,0,0,0,0,0,0,0,0,0,0,0,0,0,0,0,0,0],"id":0,"left_children":[1,3,5,7,9,11,13,15,17,19,21,23,25,27,29,31,33,35,37,39,41,43,45,-1,47,49,51,53,55,57,-1,59,61,63,65,67,69,71,73,75,77,-1,79,81,83,-1,85,87,89,91,93,95,-1,97,-1,99,101,103,-1,-1,-1,-1,-1,-1,-1,-1,-1,-1,-1,-1,-1,-1,-1,-1,-1,-1,-1,-1,-1,-1,-1,-1,-1,-1,-1,-1,-1,-1,-1,-1,-1,-1,-1,-1,-1,-1,-1,-1,-1,-1,-1,-1,-1,-1,-1],"loss_changes":[1.6477737E3,8.7723016E2,5.050952E1,2.1274982E2,5.002649E1,2.9587475E1,1.2882202E1,2.2695471E2,2.9739212E1,2.833535E1,8.583099E0,7.582428E0,1.4426738E1,1.201239E1,3.6395264E0,8.7442116E1,1.0339722E2,4.708233E0,1.5992675E1,1.1789291E1,1.1718498E1,1.0743866E1,8.7435913E-1,0E0,2.7583237E0,6.9458737E0,1.3076805E1,2.1478882E0,9.599773E0,6.5489225E0,0E0,1.8385586E1,1.0061882E1,9.330298E1,4.0837303E1,4.019008E0,4.7283897E0,1.6621527E1,6.79613E0,2.0446224E1,2.6985008E1,0E0,2.7401886E0,1.1901428E1,5.10165E0,0E0,1.0409241E0,2.8338852E0,1.9383163E0,1.5698433E0,5.563558E0,3.6213474E0,0E0,2.1478271E0,0E0,7.4168468E0,5.528717E0,2.4322891E-1,0E0,0E0,0E0,0E0,0E0,0E0,0E0,0E0,0E0,0E0,0E0,0E0,0E0,0E0,0E0,0E0,0E0,0E0,0E0,0E0,0E0,0E0,0E0,0E0,0E0,0E0,0E0,0E0,0E0,0E0,0E0,0E0,0E0,0E0,0E0,0E0,0E0,0E0,0E0,0E0,0E0,0E0,0E0,0E0,0E0,0E0,0E0],"parents":[2147483647,0,0,1,1,2,2,3,3,4,4,5,5,6,6,7,7,8,8,9,9,10,10,11,11,12,12,13,13,14,14,15,15,16,16,17,17,18,18,19,19,20,20,21,21,22,22,24,24,25,25,26,26,27,27,28,28,29,29,31,31,32,32,33,33,34,34,35,35,36,36,37,37,38,38,39,39,40,40,42,42,43,43,44,44,46,46,47,47,48,48,49,49,50,50,51,51,53,53,55,55,56,56,57,57],"right_children":[2,4,6,8,10,12,14,16,18,20,22,24,26,28,30,32,34,36,38,40,42,44,46,-1,48,50,52,54,56,58,-1,60,62,64,66,68,70,72,74,76,78,-1,80,82,84,-1,86,88,90,92,94,96,-1,98,-1,100,102,104,-1,-1,-1,-1,-1,-1,-1,-1,-1,-1,-1,-1,-1,-1,-1,-1,-1,-1,-1,-1,-1,-1,-1,-1,-1,-1,-1,-1,-1,-1,-1,-1,-1,-1,-1,-1,-1,-1,-1,-1,-1,-1,-1,-1,-1,-1,-1],"split_conditions":[1.745983E1,1.642E3,2.143E1,1.8385487E2,1.947E3,1.549E0,4.9938E-3,2.2552845E0,2.697E-4,5.2265E-3,2.423E3,1.301E0,6.7324885E-3,1.3071419E1,2.309E1,2.319E0,1.2751E1,3.818E0,4.515158E1,1.674E0,1.2533061E1,1.2793699E1,4.362826E-1,5.8156042E-3,1.1150953E2,3.5065E0,5.54868E0,3.0086398E2,9.884E-4,1.30216E3,-4.048447E-2,5.962E3,1.091E0,5.13E0,3.414205E1,7.377E3,2.9678934E2,2.89E0,1.237E1,5.931E3,1.077E0,-2.0869352E-2,2.852962E2,5.48259E3,8.9298886E-1,-1.173295E-2,5.004E0,2.657E0,4.416E3,1.892E1,3.769E0,2.514E0,-2.6287926E-2,6.73E-1,-1.0125911E-2,1.198E1,2.44651E1,5.543E3,1.2628006E-2,6.692904E-3,-2.3383657E-2,-3.4995165E-2,4.8016883E-3,2.5730584E-2,1.1052514E-2,-3.2017257E-2,1.1714667E-2,9.521486E-3,-2.2947868E-2,-2.4249133E-2,-1.0269028E-3,-1.3741933E-2,5.322148E-3,1.32605955E-2,-2.3859064E-3,3.9945105E-3,-3.2022294E-2,-3.57566E-2,-8.63633E-3,3.1168895E-2,4.8016883E-3,-2.4095597E-3,-3.0591292E-2,-2.6287926E-2,5.7960222E-3,-3.7849236E-2,-2.2871105E-2,7.2349194E-3,-2.2442369E-2,-5.159932E-3,-3.5609316E-2,-3.3053245E-2,-1.1968536E-2,1.905276E-2,-1.6284142E-2,-8.556349E-4,2.8352201E-2,-5.159932E-3,-3.6430053E-2,-1.1920985E-3,-2.6837284E-2,2.822027E-3,-3.256318E-2,-1.4284657E-2,-3.3805087E-2],"split_indices":[5,7,5,2,7,10,4,2,4,4,7,3,4,2,5,3,3,9,1,3,5,5,2,0,0,3,2,0,4,6,0,8,10,5,2,8,0,5,3,8,10,0,0,8,2,0,3,3,8,5,9,3,0,10,0,3,5,8,0,0,0,0,0,0,0,0,0,0,0,0,0,0,0,0,0,0,0,0,0,0,0,0,0,0,0,0,0,0,0,0,0,0,0,0,0,0,0,0,0,0,0,0,0,0,0],"split_type":[0,0,0,0,0,0,0,0,0,0,0,0,0,0,0,0,0,0,0,0,0,0,0,0,0,0,0,0,0,0,0,0,0,0,0,0,0,0,0,0,0,0,0,0,0,0,0,0,0,0,0,0,0,0,0,0,0,0,0,0,0,0,0,0,0,0,0,0,0,0,0,0,0,0,0,0,0,0,0,0,0,0,0,0,0,0,0,0,0,0,0,0,0,0,0,0,0,0,0,0,0,0,0,0,0],"sum_hessian":[2.0796096E3,1.6405615E3,4.3904813E2,1.3775823E3,2.6297934E2,5.6691654E1,3.8235648E2,1.2100046E3,1.6757753E2,1.00396675E2,1.6258267E2,3.0718386E1,2.5973269E1,1.3536069E2,2.469958E2,1.3011609E2,1.0798885E3,4.3205532E1,1.24372E2,8.915824E1,1.1238434E1,8.4662865E1,7.791981E1,1.9979438E0,2.8720442E1,1.3735864E1,1.2237406E1,9.265464E1,4.2706047E1,8.491261E0,2.3850453E2,9.365361E1,3.6462475E1,1.0469225E3,3.2966072E1,4.994859E0,3.8210674E1,7.492289E1,4.944911E1,2.9719414E1,5.9438828E1,1.9979438E0,9.24049E0,7.667109E1,7.991775E0,1.7482008E0,7.617161E1,3.7461445E0,2.4974297E1,8.491261E0,5.244602E0,1.0489204E1,1.7482008E0,9.040695E1,2.2476866E0,1.8980465E1,2.3725582E1,7.242546E0,1.2487148E0,8.566184E1,7.991775E0,3.3965042E1,2.4974296E0,8.24901E2,2.220215E2,1.848098E1,1.4485092E1,3.7461445E0,1.2487148E0,3.4214787E1,3.9958875E0,4.545322E1,2.9469671E1,3.3465557E1,1.598355E1,2.197738E1,7.742032E0,2.7971212E1,3.1467615E1,6.74306E0,2.4974296E0,6.74306E0,6.992803E1,1.7482008E0,6.243574E0,6.842957E1,7.742032E0,1.4984578E0,2.2476866E0,1.2487148E0,2.3725582E1,3.9958875E0,4.4953732E0,2.9969156E0,2.2476866E0,1.9979438E0,8.491261E0,1.2487148E0,8.915824E1,1.2986634E1,5.993831E0,1.7482008E0,2.197738E1,2.7471726E0,4.4953732E0],"tree_param":{"num_deleted":"0","num_feature":"12","num_nodes":"105","size_leaf_vector":"1"}},{"base_weights":[-2.422948E-4,4.514909E-1,-1.6833978E0,7.6503193E-1,-1.1857164E0,-8.020987E-1,-1.8115656E0,9.0847605E-1,-2.6909232E-1,-6.329173E-1,-1.5209717E0,-1.4364861E0,-2.576341E-2,-1.5354443E0,-1.9560684E0,-3.1314138E-1,1.0559591E0,-9.5974666E-1,-2.3304123E-2,-8.181473E-1,7.847589E-1,-1.2689499E0,-1.775217E0,5.7388423E-3,-1.5618875E0,-6.9312346E-1,7.1973175E-1,-1.7408398E0,-1.0600647E0,-1.0920612E0,-3.9642654E-2,1.912698E-1,-1.578123E0,1.1099347E0,-6.385382E-1,-5.465799E-2,-1.0735736E0,-3.0738884E-1,4.0488258E-1,-3.010039E-1,-1.0673578E0,1.2409588E0,-2.0671427E-2,-1.3800852E0,-1.6718024E-1,-1.1581131E-2,-1.7948039E0,-5.689486E-1,-1.6831344E0,-1.1962069E0,1.830464E-1,1.1400626E0,-2.5942292E-2,-1.3018057E0,-1.8496684E0,-5.024782E-1,-1.4675943E0,-1.4275838E0,1.2490872E-2,6.56207E-3,-2.2955345E-2,-3.4287773E-2,4.73366E-3,2.5241788E-2,1.0836649E-2,-3.1386577E-2,1.1499953E-2,9.373632E-3,-2.268531E-2,-2.3763198E-2,-1.0104482E-3,-1.3467772E-2,5.2201035E-3,1.3009061E-2,-2.3408325E-3,3.9185965E-3,-3.1433403E-2,-3.5037838E-2,-8.466782E-3,-8.304399E-4,2.9313607E-2,-2.3674362E-3,-2.9965762E-2,-2.5942292E-2,5.6970683E-3,-3.707151E-2,-2.2453887E-2,7.149196E-3,-2.2122536E-2,-5.1021706E-3,-3.489798E-2,-3.2503806E-2,-1.17693385E-2,1.8777013E-2,-1.6053617E-2,-5.2158525E-3,2.672978E-2,-2.976853E-2,-4.905719E-3,-3.7466973E-2,-1.1311616E-2,-1.1699194E-3,-2.6361734E-2,2.7862887E-3,-3.1916197E-2,-1.4070963E-2,-3.3230055E-2],"categories":[],"categories_nodes":[],"categories_segments":[],"categories_sizes":[],"default_left":[0,0,0,0,0,0,0,0,0,0,0,0,0,0,0,0,0,0,0,0,0,0,0,0,0,0,0,0,0,0,0,0,0,0,0,0,0,0,0,0,0,0,0,0,0,0,0,0,0,0,0,0,0,0,0,0,0,0,0,0,0,0,0,0,0,0,0,0,0,0,0,0,0,0,0,0,0,0,0,0,0,0,0,0,0,0,0,0,0,0,0,0,0,0,0,0,0,0,0,0,0,0,0,0,0,0,0],"id":1,"left_children":[1,3,5,7,9,11,13,15,17,19,21,23,25,27,29,31,33,35,37,39,41,43,45,-1,47,49,51,53,55,57,-1,59,61,63,65,67,69,71,73,75,77,79,-1,81,83,-1,85,87,89,91,93,95,-1,97,99,101,103,105,-1,-1,-1,-1,-1,-1,-1,-1,-1,-1,-1,-1,-1,-1,-1,-1,-1,-1,-1,-1,-1,-1,-1,-1,-1,-1,-1,-1,-1,-1,-1,-1,-1,-1,-1,-1,-1,-1,-1,-1,-1,-1,-1,-1,-1,-1,-1,-1,-1],"loss_changes":[1.5824291E3,8.4320404E2,4.828943E1,2.046142E2,4.7986877E1,2.8383759E1,1.2305176E1,2.1835608E2,2.8597748E1,2.7275444E1,8.23645E0,7.3075485E0,1.3916166E1,1.1478424E1,3.4251099E0,8.397143E1,9.9486694E1,4.4977264E0,1.5374645E1,1.1302521E1,1.1428328E1,1.0264755E1,8.11203E-1,0E0,2.6229477E0,6.7159333E0,1.2693762E1,2.0704346E0,9.198921E0,6.360564E0,0E0,1.7716888E1,9.676834E0,8.981995E1,3.9278046E1,3.9184456E0,4.539093E0,1.5972786E1,6.5402937E0,1.9707249E1,2.5916763E1,3.0097551E0,0E0,1.1414261E1,4.9621816E0,0E0,9.6984863E-1,2.7577791E0,1.8475723E0,1.5193281E0,5.4051294E0,3.5073948E0,0E0,3.9716148E0,1.1522064E0,7.159792E0,5.3200417E0,2.2785378E-1,0E0,0E0,0E0,0E0,0E0,0E0,0E0,0E0,0E0,0E0,0E0,0E0,0E0,0E0,0E0,0E0,0E0,0E0,0E0,0E0,0E0,0E0,0E0,0E0,0E0,0E0,0E0,0E0,0E0,0E0,0E0,0E0,0E0,0E0,0E0,0E0,0E0,0E0,0E0,0E0,0E0,0E0,0E0,0E0,0E0,0E0,0E0,0E0,0E0],"parents":[2147483647,0,0,1,1,2,2,3,3,4,4,5,5,6,6,7,7,8,8,9,9,10,10,11,11,12,12,13,13,14,14,15,15,16,16,17,17,18,18,19,19,20,20,21,21,22,22,24,24,25,25,26,26,27,27,28,28,29,29,31,31,32,32,33,33,34,34,35,35,36,36,37,37,38,38,39,39,40,40,41,41,43,43,44,44,46,46,47,47,48,48,49,49,50,50,51,51,53,53,54,54,55,55,56,56,57,57],"right_children":[2,4,6,8,10,12,14,16,18,20,22,24,26,28,30,32,34,36,38,40,42,44,46,-1,48,50,52,54,56,58,-1,60,62,64,66,68,70,72,74,76,78,80,-1,82,84,-1,86,88,90,92,94,96,-1,98,100,102,104,106,-1,-1,-1,-1,-1,-1,-1,-1,-1,-1,-1,-1,-1,-1,-1,-1,-1,-1,-1,-1,-1,-1,-1,-1,-1,-1,-1,-1,-1,-1,-1,-1,-1,-1,-1,-1,-1,-1,-1,-1,-1,-1,-1,-1,-1,-1,-1,-1,-1],"split_conditions":[1.745983E1,1.642E3,2.143E1,1.8385487E2,1.947E3,1.549E0,4.9938E-3,2.2552845E0,2.697E-4,5.2265E-3,2.423E3,1.301E0,6.7324885E-3,1.3071419E1,2.309E1,2.319E0,1.2751E1,3.818E0,4.515158E1,1.674E0,4.442E0,1.2793699E1,4.362826E-1,5.7388423E-3,1.1150953E2,3.5065E0,5.54868E0,1.921E0,9.884E-4,1.30216E3,-3.9642654E-2,5.962E3,1.091E0,5.13E0,3.414205E1,7.377E3,2.9678934E2,2.89E0,1.237E1,5.931E3,1.077E0,1.36803E1,-2.0671427E-2,5.48259E3,8.9298886E-1,-1.1581131E-2,5.004E0,2.657E0,4.416E3,1.892E1,3.769E0,1.7514789E0,-2.5942292E-2,3.5841E0,4.3985E-3,1.198E1,2.44651E1,5.543E3,1.2490872E-2,6.56207E-3,-2.2955345E-2,-3.4287773E-2,4.73366E-3,2.5241788E-2,1.0836649E-2,-3.1386577E-2,1.1499953E-2,9.373632E-3,-2.268531E-2,-2.3763198E-2,-1.0104482E-3,-1.3467772E-2,5.2201035E-3,1.3009061E-2,-2.3408325E-3,3.9185965E-3,-3.1433403E-2,-3.5037838E-2,-8.466782E-3,-8.304399E-4,2.9313607E-2,-2.3674362E-3,-2.9965762E-2,-2.5942292E-2,5.6970683E-3,-3.707151E-2,-2.2453887E-2,7.149196E-3,-2.2122536E-2,-5.1021706E-3,-3.489798E-2,-3.2503806E-2,-1.17693385E-2,1.8777013E-2,-1.6053617E-2,-5.2158525E-3,2.672978E-2,-2.976853E-2,-4.905719E-3,-3.7466973E-2,-1.1311616E-2,-1.1699194E-3,-2.6361734E-2,2.7862887E-3,-3.1916197E-2,-1.4070963E-2,-3.3230055E-2],"split_indices":[5,7,5,2,7,10,4,2,4,4,7,3,4,2,5,3,3,9,1,3,9,5,2,0,0,3,2,3,4,6,0,8,10,5,2,8,0,5,3,8,10,5,0,8,2,0,3,3,8,5,9,2,0,2,4,3,5,8,0,0,0,0,0,0,0,0,0,0,0,0,0,0,0,0,0,0,0,0,0,0,0,0,0,0,0,0,0,0,0,0,0,0,0,0,0,0,0,0,0,0,0,0,0,0,0,0,0],"split_type":[0,0,0,0,0,0,0,0,0,0,0,0,0,0,0,0,0,0,0,0,0,0,0,0,0,0,0,0,0,0,0,0,0,0,0,0,0,0,0,0,0,0,0,0,0,0,0,0,0,0,0,0,0,0,0,0,0,0,0,0,0,0,0,0,0,0,0,0,0,0,0,0,0,0,0,0,0,0,0,0,0,0,0,0,0,0,0,0,0,0,0,0,0,0,0,0,0,0,0,0,0,0,0,0,0,0,0],"sum_hessian":[2.0792207E3,1.6398435E3,4.3937717E2,1.3767208E3,2.6312262E2,5.6707455E1,3.826697E2,1.2091239E3,1.6759692E2,1.0042336E2,1.6269925E2,3.0738745E1,2.596871E1,1.3545772E2,2.4721199E2,1.3012898E2,1.0789949E3,4.3226776E1,1.24370155E2,8.919258E1,1.1230785E1,8.47156E1,7.798365E1,1.9975543E0,2.874119E1,1.3739497E1,1.2229214E1,9.2730125E1,4.2727592E1,8.495415E0,2.3871657E2,9.3639175E1,3.6489807E1,1.0460205E3,3.297438E1,4.994386E0,3.8232388E1,7.493555E1,4.9434612E1,2.9722479E1,5.94701E1,9.232081E0,1.9987038E0,7.672387E1,7.9917345E0,1.7487985E0,7.6234856E1,3.7471125E0,2.4994078E1,8.495972E0,5.2435255E0,1.0479841E1,1.749373E0,2.0994886E1,7.1735245E1,1.8985039E1,2.3742552E1,7.2472553E0,1.2481596E0,8.56425E1,7.996677E0,3.3992775E1,2.4970307E0,8.240845E2,2.2193605E2,1.8495226E1,1.44791565E1,3.7449164E0,1.2494696E0,3.423637E1,3.996018E0,4.5471107E1,2.9464434E1,3.3449863E1,1.598475E1,2.197448E1,7.748E0,2.7994358E1,3.1475742E1,1.498038E0,7.7340436E0,6.7435718E0,6.998029E1,1.749373E0,6.2423615E0,6.848816E1,7.7466993E0,1.4980906E0,2.2490218E0,1.2489132E0,2.3745165E1,3.9990332E0,4.4969378E0,2.994814E0,2.2487118E0,1.2484651E0,9.231376E0,1.7495691E1,3.4991934E0,6.998571E1,1.7495295E0,1.2987126E1,5.9979124E0,1.7480391E0,2.1994514E1,2.7482913E0,4.4989643E0],"tree_param":{"num_deleted":"0","num_feature":"12","num_nodes":"107","size_leaf_vector":"1"}},{"base_weights":[-4.9952016E-4,4.426246E-1,-1.6502889E0,7.5033337E-1,-1.1625631E0,-7.877937E-1,-1.7756851E0,8.8530946E-1,-3.0862957E-1,-6.208774E-1,-1.4910102E0,-1.409094E0,-2.6955962E-2,-1.5054847E0,-1.9170933E0,-3.0725378E-1,1.0278125E0,-1.0134401E0,-5.360728E-2,-8.0682915E-1,7.393406E-1,-1.2439007E0,-1.7403233E0,9.432E-2,-1.5547811E0,-6.820616E-1,7.0564854E-1,-1.7065983E0,-1.0399725E0,-1.0737457E0,-3.885008E-2,1.8730828E-1,-1.5470726E0,1.083373E0,-5.9700245E-1,-2.8906497E-1,-1.1102755E0,-2.0762761E-1,7.080268E-1,-2.9588762E-1,-1.0550693E0,1.2378589E0,-2.1888737E-2,-1.3525474E0,-1.6610032E-1,-1.1431788E-2,-1.7593899E0,-5.289418E-3,7.587406E-3,-5.6067884E-1,-1.6801212E0,-1.1766706E0,1.7988062E-1,1.1203632E0,-2.5606837E-2,-1.7315534E0,-9.575268E-3,-4.9374586E-1,-1.4391054E0,-1.404448E0,1.2355764E-2,6.4339074E-3,-2.2540452E-2,-3.361479E-2,4.6666274E-3,2.4680333E-2,1.0428584E-2,-3.0783402E-2,8.882237E-3,7.755346E-3,-2.5808327E-2,-2.4314364E-2,-3.0880328E-3,-8.3946325E-3,6.3795154E-3,2.36586E-2,2.5322218E-3,3.8441487E-3,-3.0869458E-2,-3.430689E-2,-8.668189E-3,-8.204646E-4,2.9119378E-2,-2.3260538E-3,-2.9366728E-2,-2.5606837E-2,5.599868E-3,-3.63355E-2,-2.2049488E-2,7.0645977E-3,-2.1811089E-2,-5.0450945E-3,-3.4878504E-2,-3.197751E-2,-1.1574164E-2,1.8507646E-2,-1.5827836E-2,-9.8779E-4,2.7445223E-2,-4.682917E-3,-3.499392E-2,-1.1481557E-3,-2.590269E-2,2.751009E-3,-3.1298056E-2,-1.3861526E-2,-3.2680128E-2],"categories":[],"categories_nodes":[],"categories_segments":[],"categories_sizes":[],"default_left":[0,0,0,0,0,0,0,0,0,0,0,0,0,0,0,0,0,0,0,0,0,0,0,0,0,0,0,0,0,0,0,0,0,0,0,0,0,0,0,0,0,0,0,0,0,0,0,0,0,0,0,0,0,0,0,0,0,0,0,0,0,0,0,0,0,0,0,0,0,0,0,0,0,0,0,0,0,0,0,0,0,0,0,0,0,0,0,0,0,0,0,0,0,0,0,0,0,0,0,0,0,0,0,0,0,0,0],"id":2,"left_children":[1,3,5,7,9,11,13,15,17,19,21,23,25,27,29,31,33,35,37,39,41,43,45,47,49,51,53,55,57,59,-1,61,63,65,67,69,71,73,75,77,79,81,-1,83,85,-1,87,-1,-1,89,91,93,95,97,-1,99,-1,101,103,105,-1,-1,-1,-1,-1,-1,-1,-1,-1,-1,-1,-1,-1,-1,-1,-1,-1,-1,-1,-1,-1,-1,-1,-1,-1,-1,-1,-1,-1,-1,-1,-1,-1,-1,-1,-1,-1,-1,-1,-1,-1,-1,-1,-1,-1,-1,-1],"loss_changes":[1.5206926E3,8.107708E2,4.62334E1,1.970296E2,4.607141E1,2.7237598E1,1.1775024E1,2.07849E2,2.8050491E1,2.625008E1,7.922333E0,7.099354E0,1.3418931E1,1.1002808E1,3.2339478E0,8.0686714E1,9.914343E1,2.589283E0,1.3739744E1,1.1065514E1,1.2982685E1,9.81485E0,7.546692E-1,4.8356426E-1,2.6709595E0,6.4955983E0,1.2320508E1,2.0434875E0,8.824486E0,6.180008E0,0E0,1.707539E1,9.31559E0,8.869519E1,3.6702522E1,4.7324E0,3.4653473E0,1.0985645E1,5.2945547E0,1.90042E1,2.3877335E1,2.9802322E0,0E0,1.0957779E1,4.8275223E0,0E0,9.090729E-1,0E0,0E0,2.6842184E0,1.8603363E0,1.4726486E0,5.251824E0,3.446741E0,0E0,2.0760193E0,0E0,6.914778E0,5.1237335E0,2.1459961E-1,0E0,0E0,0E0,0E0,0E0,0E0,0E0,0E0,0E0,0E0,0E0,0E0,0E0,0E0,0E0,0E0,0E0,0E0,0E0,0E0,0E0,0E0,0E0,0E0,0E0,0E0,0E0,0E0,0E0,0E0,0E0,0E0,0E0,0E0,0E0,0E0,0E0,0E0,0E0,0E0,0E0,0E0,0E0,0E0,0E0,0E0,0E0],"parents":[2147483647,0,0,1,1,2,2,3,3,4,4,5,5,6,6,7,7,8,8,9,9,10,10,11,11,12,12,13,13,14,14,15,15,16,16,17,17,18,18,19,19,20,20,21,21,22,22,23,23,24,24,25,25,26,26,27,27,28,28,29,29,31,31,32,32,33,33,34,34,35,35,36,36,37,37,38,38,39,39,40,40,41,41,43,43,44,44,46,46,49,49,50,50,51,51,52,52,53,53,55,55,57,57,58,58,59,59],"right_children":[2,4,6,8,10,12,14,16,18,20,22,24,26,28,30,32,34,36,38,40,42,44,46,48,50,52,54,56,58,60,-1,62,64,66,68,70,72,74,76,78,80,82,-1,84,86,-1,88,-1,-1,90,92,94,96,98,-1,100,-1,102,104,106,-1,-1,-1,-1,-1,-1,-1,-1,-1,-1,-1,-1,-1,-1,-1,-1,-1,-1,-1,-1,-1,-1,-1,-1,-1,-1,-1,-1,-1,-1,-1,-1,-1,-1,-1,-1,-1,-1,-1,-1,-1,-1,-1,-1,-1,-1,-1],"split_conditions":[1.745983E1,1.642E3,2.143E1,2.0630966E2,1.947E3,1.549E0,4.9938E-3,2.2552845E0,2.697E-4,4.9938E-3,2.423E3,1.545E0,6.7324885E-3,1.3071419E1,2.309E1,2.319E0,1.2751E1,3.842E0,4.773168E1,1.674E0,4.442E0,1.2793699E1,4.362826E-1,2.872405E2,1.1150953E2,3.5065E0,5.54868E0,3.0086398E2,9.884E-4,1.30216E3,-3.885008E-2,5.962E3,1.091E0,5.13E0,3.414205E1,1.211E1,2.9678934E2,1.79E0,3.685224E2,5.931E3,1.077E0,1.36803E1,-2.1888737E-2,5.48259E3,8.9298886E-1,-1.1431788E-2,5.004E0,-5.289418E-3,7.587406E-3,2.657E0,4.416E3,1.892E1,3.769E0,2.514E0,-2.5606837E-2,6.559685E-1,-9.575268E-3,1.198E1,2.44651E1,5.543E3,1.2355764E-2,6.4339074E-3,-2.2540452E-2,-3.361479E-2,4.6666274E-3,2.4680333E-2,1.0428584E-2,-3.0783402E-2,8.882237E-3,7.755346E-3,-2.5808327E-2,-2.4314364E-2,-3.0880328E-3,-8.3946325E-3,6.3795154E-3,2.36586E-2,2.5322218E-3,3.8441487E-3,-3.0869458E-2,-3.430689E-2,-8.668189E-3,-8.204646E-4,2.9119378E-2,-2.3260538E-3,-2.9366728E-2,-2.5606837E-2,5.599868E-3,-3.63355E-2,-2.2049488E-2,7.0645977E-3,-2.1811089E-2,-5.0450945E-3,-3.4878504E-2,-3.197751E-2,-1.1574164E-2,1.8507646E-2,-1.5827836E-2,-9.8779E-4,2.7445223E-2,-4.682917E-3,-3.499392E-2,-1.1481557E-3,-2.590269E-2,2.751009E-3,-3.1298056E-2,-1.3861526E-2,-3.2680128E-2],"split_indices":[5,7,5,2,7,10,4,2,4,4,7,3,4,2,5,3,3,9,1,3,9,5,2,0,0,3,2,0,4,6,0,8,10,5,2,6,0,6,2,8,10,5,0,8,2,0,3,0,0,3,8,5,9,3,0,11,0,3,5,8,0,0,0,0,0,0,0,0,0,0,0,0,0,0,0,0,0,0,0,0,0,0,0,0,0,0,0,0,0,0,0,0,0,0,0,0,0,0,0,0,0,0,0,0,0,0,0],"split_type":[0,0,0,0,0,0,0,0,0,0,0,0,0,0,0,0,0,0,0,0,0,0,0,0,0,0,0,0,0,0,0,0,0,0,0,0,0,0,0,0,0,0,0,0,0,0,0,0,0,0,0,0,0,0,0,0,0,0,0,0,0,0,0,0,0,0,0,0,0,0,0,0,0,0,0,0,0,0,0,0,0,0,0,0,0,0,0,0,0,0,0,0,0,0,0,0,0,0,0,0,0,0,0,0,0,0,0],"sum_hessian":[2.0781167E3,1.6387021E3,4.3941443E2,1.3755472E3,2.6315494E2,5.6700615E1,3.8271384E2,1.2201855E3,1.5536165E2,1.004235E2,1.6273143E2,3.0743465E1,2.595715E1,1.3548247E2,2.4723137E2,1.3011743E2,1.0900681E3,4.0488583E1,1.1487307E2,8.8703865E1,1.1719633E1,8.473483E1,7.799659E1,2.7471294E0,2.7996334E1,1.3739805E1,1.2217344E1,9.274717E1,4.2735294E1,8.496623E0,2.3873474E2,9.362105E1,3.6496384E1,1.054348E3,3.5720158E1,5.244247E0,3.5244335E1,9.615555E1,1.8717524E1,2.972146E1,5.8982407E1,9.4701185E0,2.2495143E0,7.674383E1,7.991006E0,1.7492706E0,7.624732E1,1.2482107E0,1.4989189E0,3.7474737E0,2.4248861E1,8.498161E0,5.2416444E0,1.0467406E1,1.7499378E0,9.049759E1,2.249576E0,1.898742E1,2.3747873E1,7.2491097E0,1.247513E0,8.562168E1,7.9993653E0,3.3999775E1,2.4966094E0,8.305118E2,2.2383623E2,1.8499998E1,1.7220161E1,3.494801E0,1.749446E0,3.149795E1,3.7463856E0,6.8691216E1,2.7464334E1,9.732996E0,8.984527E0,2.1971462E1,7.749999E0,2.7749695E1,3.1232714E1,1.4980808E0,7.972038E0,6.744055E0,6.999977E1,1.7499378E0,6.241068E0,6.849801E1,7.7493134E0,1.4976895E0,2.2497842E0,1.2490929E0,2.299977E1,3.999998E0,4.498163E0,2.9922135E0,2.249431E0,1.9971337E0,8.470272E0,1.2498107E0,8.924778E1,1.29876E1,5.99982E0,1.7478727E0,2.2E1,2.7491193E0,4.4999905E0],"tree_param":{"num_deleted":"0","num_feature":"12","num_nodes":"107","size_leaf_vector":"1"}},{"base_weights":[-7.2860863E-4,4.3404013E-1,-1.6187718E0,7.360766E-1,-1.1403279E0,-7.740087E-1,-1.7415893E0,8.7449336E-1,-2.596986E-1,-6.0923797E-1,-1.4623582E0,-1.382983E0,-2.7911773E-2,-1.4766103E0,-1.8803109E0,-3.2084948E-1,1.0144693E0,-9.2446744E-1,-2.3023525E-2,-7.915665E-1,7.259238E-1,-9.415579E-1,-1.5697715E0,5.6692706E-3,-1.5044358E0,-6.713219E-1,6.924145E-1,-1.673665E0,-1.0205709E0,-1.0560492E0,-3.8102612E-2,1.530811E-1,-1.5052521E0,1.066251E0,-6.1358845E-1,-5.46162E-2,-1.0337296E0,-2.9857904E-1,3.9261287E-1,-2.9089627E-1,-1.034782E0,-2.163108E-2,1.2183084E0,-3.86218E-1,-1.5083643E0,-1.6259507E0,-3.6080804E-1,-5.525962E-1,-1.6204131E0,-1.1577488E0,1.767924E-1,1.1017445E0,-2.5281109E-2,-1.2462165E0,-1.7799387E0,-4.8521683E-1,-1.4118028E0,-1.3821472E0,1.2222636E-2,5.5941385E-3,-2.1630626E-2,-3.27893E-2,4.600572E-3,2.425226E-2,1.0398567E-2,-3.0205807E-2,1.11279255E-2,9.124583E-3,-2.2141375E-2,-2.2880683E-2,-9.725873E-4,-1.3100971E-2,5.10613E-3,1.2643046E-2,-2.318735E-3,3.6481644E-3,-3.1014267E-2,-3.3657983E-2,-8.498665E-3,3.0081583E-2,4.364649E-3,1.3197786E-2,-1.2775793E-2,-3.481149E-2,-3.6086567E-4,-2.9658917E-2,-3.580392E-2,1.2420814E-2,-1.7057186E-2,6.9810967E-3,-2.1507667E-2,-4.9886922E-3,-3.3591166E-2,-3.1472918E-2,-1.1382896E-2,1.8244402E-2,-1.5606633E-2,-9.7460113E-4,2.6998349E-2,-2.8591573E-2,-4.3126675E-3,-3.6059316E-2,-1.0767371E-2,-1.1267936E-3,-2.5459208E-2,2.7161858E-3,-3.0706707E-2,-1.3656216E-2,-3.2153685E-2],"categories":[],"categories_nodes":[],"categories_segments":[],"categories_sizes":[],"default_left":[0,0,0,0,0,0,0,0,0,0,0,0,0,0,0,0,0,0,0,0,0,0,0,0,0,0,0,0,0,0,0,0,0,0,0,0,0,0,0,0,0,0,0,0,0,0,0,0,0,0,0,0,0,0,0,0,0,0,0,0,0,0,0,0,0,0,0,0,0,0,0,0,0,0,0,0,0,0,0,0,0,0,0,0,0,0,0,0,0,0,0,0,0,0,0,0,0,0,0,0,0,0,0,0,0,0,0,0,0],"id":3,"left_children":[1,3,5,7,9,11,13,15,17,19,21,23,25,27,29,31,33,35,37,39,41,43,45,-1,47,49,51,53,55,57,-1,59,61,63,65,67,69,71,73,75,77,-1,79,81,83,85,87,89,91,93,95,97,-1,99,101,103,105,107,-1,-1,-1,-1,-1,-1,-1,-1,-1,-1,-1,-1,-1,-1,-1,-1,-1,-1,-1,-1,-1,-1,-1,-1,-1,-1,-1,-1,-1,-1,-1,-1,-1,-1,-1,-1,-1,-1,-1,-1,-1,-1,-1,-1,-1,-1,-1,-1,-1,-1,-1],"loss_changes":[1.4620695E3,7.798197E2,4.4321167E1,1.8975916E2,4.4274292E1,2.616531E1,1.1320557E1,2.0236444E2,2.6503311E1,2.5258797E1,7.67865E0,6.849228E0,1.2950138E1,1.0553009E1,3.0630493E0,7.170817E1,9.1801025E1,4.147938E0,1.4473707E1,1.0621033E1,1.2624577E1,9.013477E0,8.527863E0,0E0,2.3872528E0,6.2843437E0,1.1965453E1,2.0387268E0,8.474098E0,6.0067816E0,0E0,1.46623745E1,8.874092E0,8.318506E1,3.6471107E1,3.7268088E0,4.208763E0,1.5162124E1,6.2135124E0,1.8598454E1,2.2990944E1,0E0,2.65973E0,4.8452797E0,5.070671E0,3.5064697E-1,4.029531E0,2.6130881E0,1.6884689E0,1.4294529E0,5.1034355E0,3.3355637E0,0E0,3.8479881E0,1.1082306E0,6.6810384E0,4.9387436E0,2.0322132E-1,0E0,0E0,0E0,0E0,0E0,0E0,0E0,0E0,0E0,0E0,0E0,0E0,0E0,0E0,0E0,0E0,0E0,0E0,0E0,0E0,0E0,0E0,0E0,0E0,0E0,0E0,0E0,0E0,0E0,0E0,0E0,0E0,0E0,0E0,0E0,0E0,0E0,0E0,0E0,0E0,0E0,0E0,0E0,0E0,0E0,0E0,0E0,0E0,0E0,0E0,0E0],"parents":[2147483647,0,0,1,1,2,2,3,3,4,4,5,5,6,6,7,7,8,8,9,9,10,10,11,11,12,12,13,13,14,14,15,15,16,16,17,17,18,18,19,19,20,20,21,21,22,22,24,24,25,25,26,26,27,27,28,28,29,29,31,31,32,32,33,33,34,34,35,35,36,36,37,37,38,38,39,39,40,40,42,42,43,43,44,44,45,45,46,46,47,47,48,48,49,49,50,50,51,51,53,53,54,54,55,55,56,56,57,57],"right_children":[2,4,6,8,10,12,14,16,18,20,22,24,26,28,30,32,34,36,38,40,42,44,46,-1,48,50,52,54,56,58,-1,60,62,64,66,68,70,72,74,76,78,-1,80,82,84,86,88,90,92,94,96,98,-1,100,102,104,106,108,-1,-1,-1,-1,-1,-1,-1,-1,-1,-1,-1,-1,-1,-1,-1,-1,-1,-1,-1,-1,-1,-1,-1,-1,-1,-1,-1,-1,-1,-1,-1,-1,-1,-1,-1,-1,-1,-1,-1,-1,-1,-1,-1,-1,-1,-1,-1,-1,-1,-1,-1],"split_conditions":[1.745983E1,1.642E3,2.143E1,1.8385487E2,1.947E3,1.549E0,4.9938E-3,2.225164E0,2.697E-4,4.9938E-3,5.721E3,1.301E0,6.7324885E-3,1.3071419E1,2.309E1,2.319E0,1.2751E1,3.818E0,4.515158E1,1.674E0,1.2533061E1,1.8481E0,1.4876E1,5.6692706E-3,1.1150953E2,3.5065E0,5.54868E0,1.921E0,9.884E-4,1.30216E3,-3.8102612E-2,5.962E3,1.091E0,5.13E0,3.414205E1,7.377E3,2.9678934E2,2.89E0,1.237E1,2.04E0,1.077E0,-2.163108E-2,2.852962E2,5.138E3,2.992663E0,2.345E-4,4.44559E3,2.657E0,4.416E3,1.892E1,3.769E0,2.514E0,-2.5281109E-2,3.5841E0,4.3985E-3,1.198E1,2.44651E1,5.543E3,1.2222636E-2,5.5941385E-3,-2.1630626E-2,-3.27893E-2,4.600572E-3,2.425226E-2,1.0398567E-2,-3.0205807E-2,1.11279255E-2,9.124583E-3,-2.2141375E-2,-2.2880683E-2,-9.725873E-4,-1.3100971E-2,5.10613E-3,1.2643046E-2,-2.318735E-3,3.6481644E-3,-3.1014267E-2,-3.3657983E-2,-8.498665E-3,3.0081583E-2,4.364649E-3,1.3197786E-2,-1.2775793E-2,-3.481149E-2,-3.6086567E-4,-2.9658917E-2,-3.580392E-2,1.2420814E-2,-1.7057186E-2,6.9810967E-3,-2.1507667E-2,-4.9886922E-3,-3.3591166E-2,-3.1472918E-2,-1.1382896E-2,1.8244402E-2,-1.5606633E-2,-9.7460113E-4,2.6998349E-2,-2.8591573E-2,-4.3126675E-3,-3.6059316E-2,-1.0767371E-2,-1.1267936E-3,-2.5459208E-2,2.7161858E-3,-3.0706707E-2,-1.3656216E-2,-3.2153685E-2],"split_indices":[5,7,5,2,7,10,4,2,4,4,8,3,4,2,5,3,3,9,1,3,5,3,5,0,0,3,2,3,4,6,0,8,10,5,2,8,0,5,3,5,10,0,0,8,2,4,6,3,8,5,9,3,0,2,4,3,5,8,0,0,0,0,0,0,0,0,0,0,0,0,0,0,0,0,0,0,0,0,0,0,0,0,0,0,0,0,0,0,0,0,0,0,0,0,0,0,0,0,0,0,0,0,0,0,0,0,0,0,0],"split_type":[0,0,0,0,0,0,0,0,0,0,0,0,0,0,0,0,0,0,0,0,0,0,0,0,0,0,0,0,0,0,0,0,0,0,0,0,0,0,0,0,0,0,0,0,0,0,0,0,0,0,0,0,0,0,0,0,0,0,0,0,0,0,0,0,0,0,0,0,0,0,0,0,0,0,0,0,0,0,0,0,0,0,0,0,0,0,0,0,0,0,0,0,0,0,0,0,0,0,0,0,0,0,0,0,0,0,0,0,0],"sum_hessian":[2.0763555E3,1.6371771E3,4.3917828E2,1.3740947E3,2.6308234E2,5.667292E1,3.8250537E2,1.2065072E3,1.675876E2,1.003982E2,1.6268413E2,3.0733885E1,2.5939034E1,1.3543967E2,2.470657E2,1.26337616E2,1.0801696E3,4.3237312E1,1.2435028E2,8.869344E1,1.17047615E1,2.948585E1,1.3319827E2,1.9971524E0,2.8736732E1,1.3736945E1,1.2202088E1,9.270974E1,4.2729923E1,8.495025E0,2.3857068E2,9.0853836E1,3.5483784E1,1.0472073E3,3.29623E1,4.9923525E0,3.824496E1,7.494527E1,4.9405018E1,2.9716578E1,5.8976864E1,2.2497325E0,9.4550295E0,1.5742862E1,1.3742989E1,1.26953964E2,6.24431E0,3.747253E0,2.498948E1,8.497951E0,5.2389946E0,1.045217E1,1.7499179E0,2.0994236E1,7.171551E1,1.898772E1,2.37422E1,7.2482467E0,1.2467781E0,8.3103874E1,7.7499566E0,3.2987617E1,2.496167E0,8.2497406E2,2.222332E2,1.8495829E1,1.4466472E1,3.742369E0,1.2499834E0,3.4248695E1,3.9962654E0,4.5487675E1,2.9457588E1,3.342022E1,1.59848E1,2.2222826E1,7.49375E0,2.773837E1,3.1238495E1,6.9617505E0,2.4932785E0,2.7480872E0,1.2994775E1,1.1745048E1,1.9979413E0,7.322635E1,5.3727608E1,1.9971037E0,4.247206E0,1.4972557E0,2.2499974E0,1.2492548E0,2.3740225E1,3.9988859E0,4.4990644E0,2.9891384E0,2.2498562E0,1.9972062E0,8.454965E0,1.7494453E1,3.4997818E0,6.9965706E1,1.7498019E0,1.2988056E1,5.999665E0,1.7477018E0,2.19945E1,2.7496693E0,4.498577E0],"tree_param":{"num_deleted":"0","num_feature":"12","num_nodes":"109","size_leaf_vector":"1"}},{"base_weights":[-9.6016255E-4,4.2572027E-1,-1.588866E0,7.2223014E-1,-1.1187736E0,-7.6067287E-1,-1.709306E0,8.525071E-1,-2.9740736E-1,-5.97858E-1,-1.4347099E0,-1.3578414E0,-2.8836792E-2,-1.4492131E0,-1.8455443E0,-2.9640162E-1,9.9008715E-1,-9.7661483E-1,-5.164926E-2,-7.7257735E-1,7.437814E-1,-1.1932957E0,-1.67871E0,9.6764795E-2,-1.4991168E0,-6.840954E-1,6.5475225E-1,-1.6426264E0,-1.0018185E0,-1.0389376E0,-1.869829E0,1.796716E-1,-1.4906406E0,1.0281079E0,-1.2063503E0,-2.838385E-1,-1.0689907E0,-2.709271E-1,4.537059E-1,-2.8598255E-1,-1.0070251E0,1.1826497E0,-1.9895293E-2,-1.298594E0,-1.5081441E-1,-1.7316339E0,-1.0563774E0,-5.322579E-3,7.6911924E-3,-5.446939E-1,-1.6193135E0,-1.1394097E0,1.8896094E-1,1.0382909E0,-2.4964686E-2,-1.6669685E0,-9.054032E-3,-4.768838E-1,-1.3856044E0,-1.3606333E0,1.209144E-2,-1.231628E-2,-1.8738139E0,6.1894516E-3,-2.1782437E-2,-3.2394752E-2,4.535484E-3,2.3394663E-2,9.975659E-3,-3.347807E-2,-9.998729E-3,7.5679743E-3,-2.5254056E-2,-2.340349E-2,-3.0236363E-3,5.0661806E-4,-1.4836588E-2,2.3167226E-3,2.0247646E-2,3.8142675E-3,-3.010481E-2,-3.3091124E-2,-7.9774195E-3,-8.618031E-4,2.7975885E-2,-2.1079083E-3,-2.8211325E-2,-2.5042152E-2,5.7617608E-3,-1.0922735E-2,-3.5073172E-2,-3.104127E-2,-7.4832942E-3,6.8986826E-3,-2.1211935E-2,-4.932959E-3,-3.3611543E-2,-3.0988706E-2,-1.11954175E-2,1.7987046E-2,-1.8186634E-2,-5.2623264E-3,2.4297902E-2,-4.2964364E-3,-3.3694495E-2,-1.1058374E-3,-2.5030388E-2,2.6818023E-3,-3.014025E-2,-1.3454901E-2,-3.1649243E-2,-1.231628E-2,-3.7556812E-2],"categories":[],"categories_nodes":[],"categories_segments":[],"categories_sizes":[],"default_left":[0,0,0,0,0,0,0,0,0,0,0,0,0,0,0,0,0,0,0,0,0,0,0,0,0,0,0,0,0,0,0,0,0,0,0,0,0,0,0,0,0,0,0,0,0,0,0,0,0,0,0,0,0,0,0,0,0,0,0,0,0,0,0,0,0,0,0,0,0,0,0,0,0,0,0,0,0,0,0,0,0,0,0,0,0,0,0,0,0,0,0,0,0,0,0,0,0,0,0,0,0,0,0,0,0,0,0,0,0,0,0,0,0],"id":4,"left_children":[1,3,5,7,9,11,13,15,17,19,21,23,25,27,29,31,33,35,37,39,41,43,45,47,49,51,53,55,57,59,61,63,65,67,69,71,73,75,77,79,81,83,-1,85,87,89,91,-1,-1,93,95,97,99,101,-1,103,-1,105,107,109,-1,-1,111,-1,-1,-1,-1,-1,-1,-1,-1,-1,-1,-1,-1,-1,-1,-1,-1,-1,-1,-1,-1,-1,-1,-1,-1,-1,-1,-1,-1,-1,-1,-1,-1,-1,-1,-1,-1,-1,-1,-1,-1,-1,-1,-1,-1,-1,-1,-1,-1,-1,-1],"loss_changes":[1.4065354E3,7.501636E2,4.255725E1,1.8268494E2,4.2579254E1,2.5144558E1,1.0898804E1,1.9282397E2,2.6044914E1,2.4333698E1,7.6322327E0,6.661518E0,1.2503672E1,1.0151489E1,2.909851E0,7.476358E1,9.209973E1,2.351204E0,1.2960921E1,9.998543E0,1.0475906E1,9.209602E0,7.6924133E-1,4.936245E-1,2.4406433E0,5.8723655E0,1.128316E1,1.957077E0,8.145603E0,5.840459E0,4.1503906E-2,1.5912716E1,8.6712265E0,7.963208E1,5.429739E0,4.524064E0,3.18853E0,1.1377735E1,6.5707746E0,1.813913E1,2.3146587E1,2.7595577E0,0E0,1.0231125E1,4.7070594E0,8.9990234E-1,2.3774586E0,0E0,0E0,2.544285E0,1.7061234E0,1.3894253E0,5.292834E0,3.0625296E0,0E0,1.9940948E0,0E0,6.4578476E0,4.764141E0,1.9350815E-1,0E0,0E0,4.9194336E-2,0E0,0E0,0E0,0E0,0E0,0E0,0E0,0E0,0E0,0E0,0E0,0E0,0E0,0E0,0E0,0E0,0E0,0E0,0E0,0E0,0E0,0E0,0E0,0E0,0E0,0E0,0E0,0E0,0E0,0E0,0E0,0E0,0E0,0E0,0E0,0E0,0E0,0E0,0E0,0E0,0E0,0E0,0E0,0E0,0E0,0E0,0E0,0E0,0E0,0E0],"parents":[2147483647,0,0,1,1,2,2,3,3,4,4,5,5,6,6,7,7,8,8,9,9,10,10,11,11,12,12,13,13,14,14,15,15,16,16,17,17,18,18,19,19,20,20,21,21,22,22,23,23,24,24,25,25,26,26,27,27,28,28,29,29,30,30,31,31,32,32,33,33,34,34,35,35,36,36,37,37,38,38,39,39,40,40,41,41,43,43,44,44,45,45,46,46,49,49,50,50,51,51,52,52,53,53,55,55,57,57,58,58,59,59,62,62],"right_children":[2,4,6,8,10,12,14,16,18,20,22,24,26,28,30,32,34,36,38,40,42,44,46,48,50,52,54,56,58,60,62,64,66,68,70,72,74,76,78,80,82,84,-1,86,88,90,92,-1,-1,94,96,98,100,102,-1,104,-1,106,108,110,-1,-1,112,-1,-1,-1,-1,-1,-1,-1,-1,-1,-1,-1,-1,-1,-1,-1,-1,-1,-1,-1,-1,-1,-1,-1,-1,-1,-1,-1,-1,-1,-1,-1,-1,-1,-1,-1,-1,-1,-1,-1,-1,-1,-1,-1,-1,-1,-1,-1,-1,-1,-1],"split_conditions":[1.745983E1,1.642E3,2.143E1,2.0630966E2,1.947E3,1.549E0,4.9938E-3,2.2552845E0,2.697E-4,5.2265E-3,2.423E3,1.545E0,6.4059E-3,1.3071419E1,2.309E1,2.319E0,1.8257E1,3.842E0,1.79E0,1.674E0,4.442E0,1.2793699E1,5.004E0,4.82E3,1.1150953E2,3.5065E0,5.660569E0,3.0086398E2,9.884E-4,1.30216E3,-5.719421E1,5.962E3,1.091E0,5.13E0,2.1863464E1,1.211E1,2.9678934E2,5.837E3,5.329E-4,5.931E3,1.077E0,1.36803E1,-1.9895293E-2,5.48259E3,8.9298886E-1,4.362826E-1,4.042966E1,-5.322579E-3,7.6911924E-3,2.657E0,4.416E3,1.892E1,3.769E0,1.7514789E0,-2.4964686E-2,6.559685E-1,-9.054032E-3,1.198E1,2.44651E1,5.543E3,1.209144E-2,-1.231628E-2,5.25E-1,6.1894516E-3,-2.1782437E-2,-3.2394752E-2,4.535484E-3,2.3394663E-2,9.975659E-3,-3.347807E-2,-9.998729E-3,7.5679743E-3,-2.5254056E-2,-2.340349E-2,-3.0236363E-3,5.0661806E-4,-1.4836588E-2,2.3167226E-3,2.0247646E-2,3.8142675E-3,-3.010481E-2,-3.3091124E-2,-7.9774195E-3,-8.618031E-4,2.7975885E-2,-2.1079083E-3,-2.8211325E-2,-2.5042152E-2,5.7617608E-3,-1.0922735E-2,-3.5073172E-2,-3.104127E-2,-7.4832942E-3,6.8986826E-3,-2.1211935E-2,-4.932959E-3,-3.3611543E-2,-3.0988706E-2,-1.11954175E-2,1.7987046E-2,-1.8186634E-2,-5.2623264E-3,2.4297902E-2,-4.2964364E-3,-3.3694495E-2,-1.1058374E-3,-2.5030388E-2,2.6818023E-3,-3.014025E-2,-1.3454901E-2,-3.1649243E-2,-1.231628E-2,-3.7556812E-2],"split_indices":[5,7,5,2,7,10,4,2,4,4,7,3,4,2,5,3,3,9,6,3,9,5,3,8,0,3,2,0,4,6,1,8,10,5,2,6,0,8,4,8,10,5,0,8,2,2,1,0,0,3,8,5,9,2,0,11,0,3,5,8,0,0,10,0,0,0,0,0,0,0,0,0,0,0,0,0,0,0,0,0,0,0,0,0,0,0,0,0,0,0,0,0,0,0,0,0,0,0,0,0,0,0,0,0,0,0,0,0,0,0,0,0,0],"split_type":[0,0,0,0,0,0,0,0,0,0,0,0,0,0,0,0,0,0,0,0,0,0,0,0,0,0,0,0,0,0,0,0,0,0,0,0,0,0,0,0,0,0,0,0,0,0,0,0,0,0,0,0,0,0,0,0,0,0,0,0,0,0,0,0,0,0,0,0,0,0,0,0,0,0,0,0,0,0,0,0,0,0,0,0,0,0,0,0,0,0,0,0,0,0,0,0,0,0,0,0,0,0,0,0,0,0,0,0,0,0,0,0,0],"sum_hessian":[2.073982E3,1.6352986E3,4.3868326E2,1.372366E3,2.6293262E2,5.6624752E1,3.820585E2,1.2170322E3,1.553338E2,1.0035675E2,1.6257585E2,3.0710224E1,2.5914526E1,1.3533247E2,2.4672604E2,1.300287E2,1.0870035E3,4.048116E1,1.1485263E2,8.916863E1,1.1188118E1,8.4681946E1,7.789391E1,2.7465143E0,2.7963709E1,1.3231065E1,1.2683461E1,9.262025E1,4.271222E1,8.490756E0,2.3823529E2,9.357527E1,3.6453434E1,1.0690303E3,1.7973194E1,5.2419114E0,3.523925E1,8.042112E1,3.443151E1,2.9715054E1,5.9453583E1,9.1884E0,1.999718E0,7.669002E1,7.9919286E0,7.014611E1,7.747801E0,1.2480602E0,1.4984542E0,3.7464736E0,2.4217236E1,8.495454E0,4.735611E0,1.0934125E1,1.7493359E0,9.037065E1,2.2496028E0,1.8986048E1,2.3726171E1,7.2447977E0,1.2459583E0,1.2473052E0,2.3698799E2,8.5576645E1,7.9986305E0,3.395773E1,2.4957042E0,8.4242316E2,2.2660715E2,9.9909315E0,7.9822626E0,3.4925234E0,1.749388E0,3.1492407E1,3.7468424E0,4.9945316E1,3.0475807E1,2.2208097E1,1.2223414E1,2.1969265E1,7.745788E0,2.796126E1,3.1492323E1,1.4973991E0,7.691001E0,6.7458806E0,6.994414E1,1.749435E0,6.242494E0,1.7499552E0,6.839616E1,3.748876E0,3.9989247E0,1.4967904E0,2.2496831E0,1.2493992E0,2.2967836E1,3.9957967E0,4.499657E0,2.9856112E0,1.7499999E0,1.2479619E0,9.686163E0,1.2498958E0,8.912075E1,1.2988496E1,5.997552E0,1.7475265E0,2.1978643E1,2.749953E0,4.494845E0,1.2473052E0,2.3574068E2],"tree_param":{"num_deleted":"0","num_feature":"12","num_nodes":"113","size_leaf_vector":"1"}},{"base_weights":[-1.2193874E-3,4.176013E-1,-1.5603924E0,7.08732E-1,-1.0982178E0,-7.480343E-1,-1.6785914E0,8.4540796E-1,-2.3064843E-1,-5.8689857E-1,-1.408475E0,-1.3338264E0,-3.0081052E-2,-1.422728E0,-1.8127254E0,-2.9097816E-1,9.840195E-1,-8.904303E-1,2.5456946E-3,-7.624699E-1,7.0166326E-1,-1.1709918E0,-1.6486813E0,5.60047E-3,-1.4518437E0,-5.38869E-1,8.2416856E-1,-1.6126696E0,-9.836778E-1,-1.0223793E0,-1.836529E0,1.7596535E-1,-1.463459E0,1.0207098E0,-1.2803297E0,-1.4008099E-1,-9.840718E-1,-2.7861542E-1,4.067193E-1,-2.8121287E-1,-9.963738E-1,-2.5084285E-2,1.1298953E0,-1.240478E0,2.750166E-1,-1.7003934E0,-1.0400689E0,-5.369654E-1,-1.5632662E0,6.961111E-1,-8.418356E-1,-1.1555604E-2,1.1716703E0,-1.1947763E0,-1.716962E0,-4.6873918E-1,-1.3604364E0,-1.3398618E0,1.1962134E-2,-1.2183724E-2,-1.840406E0,6.068835E-3,-2.1402694E-2,-3.1808868E-2,4.4713486E-3,2.325491E-2,9.851451E-3,-2.9308502E-2,8.323579E-3,-1.8034592E-2,1.2166296E-2,-2.2109203E-2,8.378373E-4,-1.1524942E-2,4.519172E-3,1.01862475E-2,-2.436158E-2,3.62336E-3,-3.0248629E-2,-3.2448363E-2,-8.177352E-3,-5.3534517E-3,2.6746849E-2,-2.0711054E-3,-2.6824014E-2,2.2897765E-2,-9.569448E-3,-1.0783886E-2,-3.4438804E-2,-3.057008E-2,-7.364373E-3,6.8173367E-3,-2.0923562E-2,-4.877882E-3,-3.240354E-2,-3.8367265E-3,2.3421725E-2,-2.3204297E-2,7.5990036E-3,1.9310846E-3,2.8538594E-2,-2.750941E-2,-3.7505084E-3,-3.4789484E-2,-1.02513395E-2,-1.0852651E-3,-2.4615418E-2,2.6478618E-3,-2.9596984E-2,-1.3257461E-2,-3.1165434E-2,-1.2183724E-2,-3.6886476E-2],"categories":[],"categories_nodes":[],"categories_segments":[],"categories_sizes":[],"default_left":[0,0,0,0,0,0,0,0,0,0,0,0,0,0,0,0,0,0,0,0,0,0,0,0,0,0,0,0,0,0,0,0,0,0,0,0,0,0,0,0,0,0,0,0,0,0,0,0,0,0,0,0,0,0,0,0,0,0,0,0,0,0,0,0,0,0,0,0,0,0,0,0,0,0,0,0,0,0,0,0,0,0,0,0,0,0,0,0,0,0,0,0,0,0,0,0,0,0,0,0,0,0,0,0,0,0,0,0,0,0,0,0,0],"id":5,"left_children":[1,3,5,7,9,11,13,15,17,19,21,23,25,27,29,31,33,35,37,39,41,43,45,-1,47,49,51,53,55,57,59,61,63,65,67,69,71,73,75,77,79,-1,81,83,85,87,89,91,93,95,97,-1,99,101,103,105,107,109,-1,-1,111,-1,-1,-1,-1,-1,-1,-1,-1,-1,-1,-1,-1,-1,-1,-1,-1,-1,-1,-1,-1,-1,-1,-1,-1,-1,-1,-1,-1,-1,-1,-1,-1,-1,-1,-1,-1,-1,-1,-1,-1,-1,-1,-1,-1,-1,-1,-1,-1,-1,-1,-1,-1],"loss_changes":[1.3537336E3,7.219127E2,4.089209E1,1.7627435E2,4.100293E1,2.4167526E1,1.0544556E1,1.8890466E2,2.6924065E1,2.3449764E1,7.3898315E0,6.4392166E0,1.2129272E1,9.7690735E0,2.7734375E0,7.1952065E1,8.999426E1,3.073021E0,1.4918261E1,9.808258E0,1.2026343E1,8.943146E0,7.107849E-1,0E0,2.1857986E0,7.116655E0,5.758695E0,2.022873E0,7.83712E0,5.680643E0,1.4831543E-2,1.5343445E1,8.368828E0,7.827014E1,6.094158E0,4.103223E0,5.0853577E0,1.1757922E1,9.597654E0,1.7754166E1,2.1374031E1,0E0,3.5232058E0,9.236E0,3.6570897E0,8.4877014E-1,2.3066807E0,2.4777093E0,1.5519943E0,1.9056648E0,6.068946E0,0E0,2.2468386E0,3.738634E0,1.0747833E0,6.244563E0,4.599083E0,1.8527412E-1,0E0,0E0,2.2155762E-2,0E0,0E0,0E0,0E0,0E0,0E0,0E0,0E0,0E0,0E0,0E0,0E0,0E0,0E0,0E0,0E0,0E0,0E0,0E0,0E0,0E0,0E0,0E0,0E0,0E0,0E0,0E0,0E0,0E0,0E0,0E0,0E0,0E0,0E0,0E0,0E0,0E0,0E0,0E0,0E0,0E0,0E0,0E0,0E0,0E0,0E0,0E0,0E0,0E0,0E0,0E0,0E0],"parents":[2147483647,0,0,1,1,2,2,3,3,4,4,5,5,6,6,7,7,8,8,9,9,10,10,11,11,12,12,13,13,14,14,15,15,16,16,17,17,18,18,19,19,20,20,21,21,22,22,24,24,25,25,26,26,27,27,28,28,29,29,30,30,31,31,32,32,33,33,34,34,35,35,36,36,37,37,38,38,39,39,40,40,42,42,43,43,44,44,45,45,46,46,47,47,48,48,49,49,50,50,52,52,53,53,54,54,55,55,56,56,57,57,60,60],"right_children":[2,4,6,8,10,12,14,16,18,20,22,24,26,28,30,32,34,36,38,40,42,44,46,-1,48,50,52,54,56,58,60,62,64,66,68,70,72,74,76,78,80,-1,82,84,86,88,90,92,94,96,98,-1,100,102,104,106,108,110,-1,-1,112,-1,-1,-1,-1,-1,-1,-1,-1,-1,-1,-1,-1,-1,-1,-1,-1,-1,-1,-1,-1,-1,-1,-1,-1,-1,-1,-1,-1,-1,-1,-1,-1,-1,-1,-1,-1,-1,-1,-1,-1,-1,-1,-1,-1,-1,-1,-1,-1,-1,-1,-1,-1],"split_conditions":[1.745983E1,1.642E3,2.143E1,1.6941507E2,1.947E3,1.549E0,4.9938E-3,2.2552845E0,2.697E-4,4.9938E-3,2.423E3,1.301E0,7.641404E-3,1.3071419E1,2.309E1,2.319E0,1.8257E1,3.818E0,2.83E2,1.674E0,1.13E1,1.4876E1,5.004E0,5.60047E-3,1.1150953E2,1.1424373E0,1.5746602E3,1.921E0,9.884E-4,1.30216E3,-5.719421E1,5.962E3,1.091E0,5.13E0,1.99145E0,4.382442E1,2.9678934E2,4.508763E1,1.662E1,2.04E0,1.077E0,-2.5084285E-2,5.57E3,5.48259E3,4.044E0,4.362826E-1,4.042966E1,2.657E0,4.416E3,3.4366E0,2.350745E0,-1.1555604E-2,1.1775099E0,3.5841E0,4.3985E-3,1.198E1,2.44651E1,5.543E3,1.1962134E-2,-1.2183724E-2,5.25E-1,6.068835E-3,-2.1402694E-2,-3.1808868E-2,4.4713486E-3,2.325491E-2,9.851451E-3,-2.9308502E-2,8.323579E-3,-1.8034592E-2,1.2166296E-2,-2.2109203E-2,8.378373E-4,-1.1524942E-2,4.519172E-3,1.01862475E-2,-2.436158E-2,3.62336E-3,-3.0248629E-2,-3.2448363E-2,-8.177352E-3,-5.3534517E-3,2.6746849E-2,-2.0711054E-3,-2.6824014E-2,2.2897765E-2,-9.569448E-3,-1.0783886E-2,-3.4438804E-2,-3.057008E-2,-7.364373E-3,6.8173367E-3,-2.0923562E-2,-4.877882E-3,-3.240354E-2,-3.8367265E-3,2.3421725E-2,-2.3204297E-2,7.5990036E-3,1.9310846E-3,2.8538594E-2,-2.750941E-2,-3.7505084E-3,-3.4789484E-2,-1.02513395E-2,-1.0852651E-3,-2.4615418E-2,2.6478618E-3,-2.9596984E-2,-1.3257461E-2,-3.1165434E-2,-1.2183724E-2,-3.6886476E-2],"split_indices":[5,7,5,2,7,10,4,2,4,4,7,3,4,2,5,3,3,9,7,3,5,5,3,0,0,11,7,3,4,6,1,8,10,5,10,1,0,1,6,5,10,0,8,8,9,2,1,3,8,3,11,0,11,2,4,3,5,8,0,0,10,0,0,0,0,0,0,0,0,0,0,0,0,0,0,0,0,0,0,0,0,0,0,0,0,0,0,0,0,0,0,0,0,0,0,0,0,0,0,0,0,0,0,0,0,0,0,0,0,0,0,0,0],"split_type":[0,0,0,0,0,0,0,0,0,0,0,0,0,0,0,0,0,0,0,0,0,0,0,0,0,0,0,0,0,0,0,0,0,0,0,0,0,0,0,0,0,0,0,0,0,0,0,0,0,0,0,0,0,0,0,0,0,0,0,0,0,0,0,0,0,0,0,0,0,0,0,0,0,0,0,0,0,0,0,0,0,0,0,0,0,0,0,0,0,0,0,0,0,0,0,0,0,0,0,0,0,0,0,0,0,0,0,0,0,0,0,0,0],"sum_hessian":[2.071057E3,1.6331082E3,4.3794876E2,1.370433E3,2.6267517E2,5.6558968E1,3.813898E2,1.1964539E3,1.7397906E2,1.002877E2,1.6238748E2,3.06738E1,2.5885168E1,1.3516556E2,2.4622424E2,1.2995316E2,1.0665007E3,4.469735E1,1.2928172E2,8.862103E1,1.1666666E1,8.46108E1,7.777667E1,1.9967084E0,2.867709E1,1.645426E1,9.430908E0,9.248267E1,4.268288E1,8.483948E0,2.377403E2,9.354754E1,3.6405624E1,1.0500358E3,1.6464958E1,5.2361336E0,3.9461216E1,7.642662E1,5.28551E1,2.9705093E1,5.891594E1,1.7491052E0,9.917561E0,8.086697E1,3.7438335E0,7.0032326E1,7.7443504E0,3.7451594E0,2.493193E1,2.9857638E0,1.3468496E1,1.7416778E0,7.68923E0,2.0958662E1,7.152401E1,1.89825E1,2.370038E1,7.2388916E0,1.2450566E0,1.246545E0,2.3649376E2,8.5552025E1,7.9955106E0,3.39104E1,2.4952223E0,8.265453E2,2.234905E2,1.4968094E1,1.496864E0,2.4935467E0,2.7425869E0,3.521698E1,4.244235E0,4.7981728E1,2.8444895E1,5.03617E1,2.4934022E0,2.221512E1,7.489974E0,2.7669685E1,3.1246252E1,1.2443149E0,8.673245E0,6.7462068E0,7.4120766E1,1.4966103E0,2.2472231E0,1.7499132E0,6.828241E1,3.7459664E0,3.998384E0,1.4962951E0,2.2488642E0,1.2495267E0,2.3682404E1,1.2482753E0,1.7374886E0,1.0724297E1,2.7441993E0,1.7397804E0,5.9494495E0,1.746075E1,3.4979115E0,6.977551E1,1.7484992E0,1.2988918E1,5.993581E0,1.7473472E0,2.1953033E1,2.7499814E0,4.48891E0,1.246545E0,2.3524721E2],"tree_param":{"num_deleted":"0","num_feature":"12","num_nodes":"113","size_leaf_vector":"1"}},{"base_weights":[-1.4352293E-3,4.097347E-1,-1.5330925E0,6.956158E-1,-1.0782697E0,-7.343671E-1,-1.6494329E0,8.299654E-1,-2.2636846E-1,-5.7633716E-1,-1.3830407E0,-1.3106413E0,-2.8639589E-2,-1.3975458E0,-1.7816168E0,-3.0425832E-1,9.640378E-1,-8.736194E-1,2.334201E-3,-7.4847984E-1,6.886045E-1,-8.810061E-1,-1.4868993E0,9.898484E-2,-1.4480859E0,-6.416881E-1,6.5976363E-1,-1.5228523E0,-7.7117854E-1,-1.0063448E0,-3.6099702E-2,1.4252324E-1,-1.4241238E0,1.0035318E0,-1.0608118E0,-1.382241E-1,-9.654126E-1,-2.7313292E-1,3.9849585E-1,-2.765161E-1,-9.780072E-1,-2.4773516E-2,1.1115186E0,-3.4058878E-1,-1.4358152E0,-1.5405871E0,-3.3506715E-1,-5.3260047E-3,7.7628163E-3,-5.294052E-1,-1.5638373E0,-1.1087004E0,1.7252393E-1,1.0555345E0,-2.4456114E-2,-1.0558496E0,-1.6277158E0,-6.262473E-3,-1.2482634E0,-1.3197908E0,1.1834677E-2,5.2457647E-3,-2.050479E-2,-3.1036833E-2,4.4081425E-3,2.2892434E-2,9.608318E-3,-2.7152063E-2,1.6247818E-2,-1.7771251E-2,1.1992693E-2,-2.1691607E-2,8.2429266E-4,3.402011E-3,-1.2198513E-2,9.991569E-3,-2.399485E-2,3.7832423E-3,-2.9387934E-2,-3.1884357E-2,-8.018302E-3,-5.2934755E-3,2.6328262E-2,1.351176E-2,-1.1770683E-2,-3.325584E-2,1.1036017E-4,-2.7992284E-2,-3.4071404E-2,1.2098905E-2,-1.6167277E-2,6.737037E-3,-2.0642256E-2,-4.823448E-3,-3.2458745E-2,-3.0292869E-2,-1.0779572E-2,1.7682264E-2,-1.5045552E-2,-1.2500206E-3,2.5985075E-2,-2.7026476E-2,5.781499E-4,-2.37524E-2,-3.4203198E-2,1.1433837E-2,-1.9830776E-2,-2.9955653E-2,-3.4333658E-3,-1.3063773E-2,-3.0701002E-2],"categories":[],"categories_nodes":[],"categories_segments":[],"categories_sizes":[],"default_left":[0,0,0,0,0,0,0,0,0,0,0,0,0,0,0,0,0,0,0,0,0,0,0,0,0,0,0,0,0,0,0,0,0,0,0,0,0,0,0,0,0,0,0,0,0,0,0,0,0,0,0,0,0,0,0,0,0,0,0,0,0,0,0,0,0,0,0,0,0,0,0,0,0,0,0,0,0,0,0,0,0,0,0,0,0,0,0,0,0,0,0,0,0,0,0,0,0,0,0,0,0,0,0,0,0,0,0,0,0,0,0],"id":6,"left_children":[1,3,5,7,9,11,13,15,17,19,21,23,25,27,29,31,33,35,37,39,41,43,45,47,49,51,53,55,57,59,-1,61,63,65,67,69,71,73,75,77,79,-1,81,83,85,87,89,-1,-1,91,93,95,97,99,-1,101,103,105,107,109,-1,-1,-1,-1,-1,-1,-1,-1,-1,-1,-1,-1,-1,-1,-1,-1,-1,-1,-1,-1,-1,-1,-1,-1,-1,-1,-1,-1,-1,-1,-1,-1,-1,-1,-1,-1,-1,-1,-1,-1,-1,-1,-1,-1,-1,-1,-1,-1,-1,-1,-1],"loss_changes":[1.3033773E3,6.948231E2,3.9489624E1,1.6979602E2,3.94877E1,2.3342968E1,1.02126465E1,1.8206458E2,2.5897327E1,2.2552849E1,7.196167E0,6.2705193E0,1.1760827E1,9.495422E0,2.6506348E0,6.380506E1,8.656854E1,2.949913E0,1.4323902E1,9.43161E0,1.1682433E1,8.631241E0,7.7529907E0,4.9899203E-1,2.2430801E0,5.7873397E0,1.1086511E1,3.778595E0,9.001517E0,5.526964E0,0E0,1.3104402E1,7.975418E0,7.689282E1,1.2745457E1,3.985239E0,4.8958626E0,1.1661833E1,9.2961445E0,1.7330967E1,2.0648659E1,0E0,3.420704E0,4.6103086E0,4.817713E0,5.448303E-1,3.7070858E0,0E0,0E0,2.4132671E0,1.573452E0,1.3777847E0,4.764751E0,3.187664E0,0E0,7.5489025E0,1.2280579E0,6.5393558E0,3.8259602E0,1.7835712E-1,0E0,0E0,0E0,0E0,0E0,0E0,0E0,0E0,0E0,0E0,0E0,0E0,0E0,0E0,0E0,0E0,0E0,0E0,0E0,0E0,0E0,0E0,0E0,0E0,0E0,0E0,0E0,0E0,0E0,0E0,0E0,0E0,0E0,0E0,0E0,0E0,0E0,0E0,0E0,0E0,0E0,0E0,0E0,0E0,0E0,0E0,0E0,0E0,0E0,0E0,0E0],"parents":[2147483647,0,0,1,1,2,2,3,3,4,4,5,5,6,6,7,7,8,8,9,9,10,10,11,11,12,12,13,13,14,14,15,15,16,16,17,17,18,18,19,19,20,20,21,21,22,22,23,23,24,24,25,25,26,26,27,27,28,28,29,29,31,31,32,32,33,33,34,34,35,35,36,36,37,37,38,38,39,39,40,40,42,42,43,43,44,44,45,45,46,46,49,49,50,50,51,51,52,52,53,53,55,55,56,56,57,57,58,58,59,59],"right_children":[2,4,6,8,10,12,14,16,18,20,22,24,26,28,30,32,34,36,38,40,42,44,46,48,50,52,54,56,58,60,-1,62,64,66,68,70,72,74,76,78,80,-1,82,84,86,88,90,-1,-1,92,94,96,98,100,-1,102,104,106,108,110,-1,-1,-1,-1,-1,-1,-1,-1,-1,-1,-1,-1,-1,-1,-1,-1,-1,-1,-1,-1,-1,-1,-1,-1,-1,-1,-1,-1,-1,-1,-1,-1,-1,-1,-1,-1,-1,-1,-1,-1,-1,-1,-1,-1,-1,-1,-1,-1,-1,-1,-1],"split_conditions":[1.745983E1,1.642E3,2.143E1,1.6941507E2,1.947E3,1.549E0,4.9938E-3,2.225164E0,2.697E-4,4.9938E-3,5.721E3,1.545E0,6.7324885E-3,4.4145992E1,2.309E1,2.319E0,1.645E1,3.818E0,2.83E2,1.674E0,1.13E1,1.8481E0,1.4876E1,2.872405E2,1.1150953E2,3.5065E0,5.54868E0,1.921E0,9.5095445E-4,1.30216E3,-3.6099702E-2,5.962E3,1.091E0,5.13E0,1.2766948E0,4.382442E1,2.9678934E2,2.28E2,1.662E1,5.931E3,1.077E0,-2.4773516E-2,5.57E3,5.138E3,2.992663E0,2.345E-4,4.44559E3,-5.3260047E-3,7.7628163E-3,2.657E0,4.416E3,1.892E1,3.769E0,2.514E0,-2.4456114E-2,3.5841E0,1.5924E2,1.198E1,3.14E-3,5.543E3,1.1834677E-2,5.2457647E-3,-2.050479E-2,-3.1036833E-2,4.4081425E-3,2.2892434E-2,9.608318E-3,-2.7152063E-2,1.6247818E-2,-1.7771251E-2,1.1992693E-2,-2.1691607E-2,8.2429266E-4,3.402011E-3,-1.2198513E-2,9.991569E-3,-2.399485E-2,3.7832423E-3,-2.9387934E-2,-3.1884357E-2,-8.018302E-3,-5.2934755E-3,2.6328262E-2,1.351176E-2,-1.1770683E-2,-3.325584E-2,1.1036017E-4,-2.7992284E-2,-3.4071404E-2,1.2098905E-2,-1.6167277E-2,6.737037E-3,-2.0642256E-2,-4.823448E-3,-3.2458745E-2,-3.0292869E-2,-1.0779572E-2,1.7682264E-2,-1.5045552E-2,-1.2500206E-3,2.5985075E-2,-2.7026476E-2,5.781499E-4,-2.37524E-2,-3.4203198E-2,1.1433837E-2,-1.9830776E-2,-2.9955653E-2,-3.4333658E-3,-1.3063773E-2,-3.0701002E-2],"split_indices":[5,7,5,2,7,10,4,2,4,4,8,3,4,2,5,3,3,9,7,3,5,3,5,0,0,3,2,3,4,6,0,8,10,5,11,1,0,7,6,8,10,0,8,8,2,4,6,0,0,3,8,5,9,3,0,2,6,3,4,8,0,0,0,0,0,0,0,0,0,0,0,0,0,0,0,0,0,0,0,0,0,0,0,0,0,0,0,0,0,0,0,0,0,0,0,0,0,0,0,0,0,0,0,0,0,0,0,0,0,0,0],"split_type":[0,0,0,0,0,0,0,0,0,0,0,0,0,0,0,0,0,0,0,0,0,0,0,0,0,0,0,0,0,0,0,0,0,0,0,0,0,0,0,0,0,0,0,0,0,0,0,0,0,0,0,0,0,0,0,0,0,0,0,0,0,0,0,0,0,0,0,0,0,0,0,0,0,0,0,0,0,0,0,0,0,0,0,0,0,0,0,0,0,0,0,0,0,0,0,0,0,0,0,0,0,0,0,0,0,0,0,0,0,0,0],"sum_hessian":[2.0676067E3,1.6306066E3,4.3700015E2,1.3682631E3,2.6234348E2,5.6489388E1,3.8051074E2,1.194328E3,1.7393507E2,1.0020507E2,1.6213841E2,3.062492E1,2.5864468E1,1.349415E2,2.4556926E2,1.2611896E2,1.068209E3,4.4676453E1,1.2925862E2,8.856128E1,1.1643786E1,2.9418272E1,1.3272014E2,2.745633E0,2.7879288E1,1.3716911E1,1.2147556E1,1.1125364E2,2.3687853E1,8.474728E0,2.3709453E2,9.077578E1,3.5343178E1,1.0482673E3,1.9941711E1,5.2358255E0,3.9440628E1,7.642665E1,5.283197E1,2.9698572E1,5.886271E1,1.7481788E0,9.895608E0,1.5719966E1,1.3698305E1,1.2648698E2,6.233164E0,1.248045E0,1.4975878E0,3.7433321E0,2.4135956E1,8.487183E0,5.229728E0,1.0400401E1,1.747155E0,2.243034E1,8.88233E1,9.488289E0,1.4199565E1,7.230652E0,1.244076E0,8.303514E1,7.7406373E0,3.2848454E1,2.494722E0,8.2465967E2,2.2360765E2,1.7451876E1,2.4898357E0,2.4946933E0,2.7411323E0,3.519651E1,4.2441173E0,3.3212517E1,4.321413E1,5.0335835E1,2.4961352E0,2.1965195E1,7.7333765E0,2.7614182E1,3.124853E1,1.2445726E0,8.651035E0,2.745028E0,1.2974938E1,1.170188E1,1.996425E0,7.296401E1,5.3522957E1,1.9942473E0,4.2389164E0,1.4957709E0,2.2475615E0,1.2496378E0,2.2886318E1,3.987447E0,4.499736E0,2.9804304E0,2.2492976E0,1.9944832E0,8.405918E0,1.7435413E1,4.994927E0,1.6444712E1,7.2378586E1,6.2448688E0,3.2434196E0,1.1210189E1,2.9893758E0,2.7497663E0,4.4808855E0],"tree_param":{"num_deleted":"0","num_feature":"12","num_nodes":"111","size_leaf_vector":"1"}},{"base_weights":[-1.6606469E-3,4.0209338E-1,-1.5071229E0,7.5626516E-1,-7.591978E-1,-7.2245175E-1,-1.6215289E0,9.1477334E-1,-2.2218873E-1,-9.7396153E-1,7.8927755E-1,-1.2884542E0,-2.95223E-2,-1.3732427E0,-1.7519953E0,9.607174E-1,-8.614211E-1,-8.5728836E-1,2.1145388E-3,-6.077583E-1,-1.4015306E0,-7.876188E-1,1.1439074E0,5.532395E-3,-1.4034693E0,-6.542102E-1,6.2404895E-1,-9.2061836E-1,-1.5453038E0,-9.9080694E-1,-1.7749668E0,9.9440104E-1,-1.2474909E0,-1.4125055E0,3.936472E-1,-1.3640323E-1,-9.4729555E-1,-2.67768E-1,3.9045677E-1,-8.2136846E-1,-3.9737076E-3,-1.0195346E0,-1.5652539E0,2.7447614E-1,-2.8176384E-2,1.4486976E0,-3.0672202E-2,-5.220069E-1,-1.5109348E0,5.3234303E-1,-9.5120317E-1,9.9500793E-1,-2.4162607E-2,9.5998105E-3,-1.0169712E0,-1.5701858E0,4.9906824E-4,-1.3003824E0,1.1709026E-2,-1.1668851E-2,-1.7787676E0,6.251395E-4,2.1394119E-2,-2.8695589E-2,3.847429E-3,-3.1165063E-2,-1.8210262E-3,2.2442162E-2,-1.9486528E-2,-1.7513806E-2,1.1822153E-2,-2.1286625E-2,8.10971E-4,-1.1175078E-2,4.509084E-3,9.801008E-3,-2.3638746E-2,-8.215636E-3,-2.623529E-2,8.933333E-3,-1.6420836E-2,-1.1289189E-2,-3.0512651E-2,-3.1594325E-2,-6.6097486E-3,-2.3285108E-2,2.5233032E-2,-5.466653E-3,3.0609796E-2,-1.0174468E-2,1.3869107E-2,6.6577718E-3,-2.0367717E-2,-4.769659E-3,-3.131867E-2,-3.5470165E-3,2.0140082E-2,-2.6169693E-2,5.3052776E-3,-5.2763266E-3,2.335072E-2,-8.4046265E-3,-2.592702E-2,-2.3064414E-2,-3.343548E-2,-1.2873732E-2,-3.0254783E-2,-1.1668851E-2,-3.5652168E-2],"categories":[],"categories_nodes":[],"categories_segments":[],"categories_sizes":[],"default_left":[0,0,0,0,0,0,0,0,0,0,0,0,0,0,0,0,0,0,0,0,0,0,0,0,0,0,0,0,0,0,0,0,0,0,0,0,0,0,0,0,0,0,0,0,0,0,0,0,0,0,0,0,0,0,0,0,0,0,0,0,0,0,0,0,0,0,0,0,0,0,0,0,0,0,0,0,0,0,0,0,0,0,0,0,0,0,0,0,0,0,0,0,0,0,0,0,0,0,0,0,0,0,0,0,0,0,0,0,0],"id":7,"left_children":[1,3,5,7,9,11,13,15,17,19,21,23,25,27,29,31,33,35,37,39,41,43,45,-1,47,49,51,53,55,57,59,61,63,65,67,69,71,73,75,77,79,81,83,85,-1,87,89,91,93,95,97,99,-1,-1,101,103,-1,105,-1,-1,107,-1,-1,-1,-1,-1,-1,-1,-1,-1,-1,-1,-1,-1,-1,-1,-1,-1,-1,-1,-1,-1,-1,-1,-1,-1,-1,-1,-1,-1,-1,-1,-1,-1,-1,-1,-1,-1,-1,-1,-1,-1,-1,-1,-1,-1,-1,-1,-1],"loss_changes":[1.255576E3,6.7050037E2,3.8043762E1,1.9386066E2,1.2752652E2,2.2470343E1,9.917786E0,8.853461E1,2.4914919E1,5.163037E1,2.7171831E1,6.070095E0,1.1360492E1,9.14357E0,2.5388794E0,7.9201965E1,1.9664085E1,2.8325844E0,1.3754282E1,2.3510582E1,8.027405E0,6.4681244E0,1.3920765E1,0E0,2.012207E0,5.5118237E0,1.0460095E1,5.865135E0,3.8225098E0,5.3790855E0,3.6865234E-2,7.488611E1,4.6423817E0,3.5975113E0,1.0272615E1,3.8710186E0,4.7153206E0,1.1238929E1,9.005262E0,2.6575943E1,1.8279497E1,1.0431366E1,1.367981E0,7.488795E0,0E0,4.755867E0,3.456197E0,2.3508687E0,1.4340363E0,1.3524573E0,5.4405518E0,2.887331E0,0E0,0E0,5.7237473E0,2.110443E0,0E0,1.7260742E-1,0E0,0E0,4.3762207E-2,0E0,0E0,0E0,0E0,0E0,0E0,0E0,0E0,0E0,0E0,0E0,0E0,0E0,0E0,0E0,0E0,0E0,0E0,0E0,0E0,0E0,0E0,0E0,0E0,0E0,0E0,0E0,0E0,0E0,0E0,0E0,0E0,0E0,0E0,0E0,0E0,0E0,0E0,0E0,0E0,0E0,0E0,0E0,0E0,0E0,0E0,0E0,0E0],"parents":[2147483647,0,0,1,1,2,2,3,3,4,4,5,5,6,6,7,7,8,8,9,9,10,10,11,11,12,12,13,13,14,14,15,15,16,16,17,17,18,18,19,19,20,20,21,21,22,22,24,24,25,25,26,26,27,27,28,28,29,29,30,30,31,31,32,32,33,33,34,34,35,35,36,36,37,37,38,38,39,39,40,40,41,41,42,42,43,43,45,45,46,46,47,47,48,48,49,49,50,50,51,51,54,54,55,55,57,57,60,60],"right_children":[2,4,6,8,10,12,14,16,18,20,22,24,26,28,30,32,34,36,38,40,42,44,46,-1,48,50,52,54,56,58,60,62,64,66,68,70,72,74,76,78,80,82,84,86,-1,88,90,92,94,96,98,100,-1,-1,102,104,-1,106,-1,-1,108,-1,-1,-1,-1,-1,-1,-1,-1,-1,-1,-1,-1,-1,-1,-1,-1,-1,-1,-1,-1,-1,-1,-1,-1,-1,-1,-1,-1,-1,-1,-1,-1,-1,-1,-1,-1,-1,-1,-1,-1,-1,-1,-1,-1,-1,-1,-1,-1],"split_conditions":[1.745983E1,1.395E3,2.143E1,1.6941507E2,4.9938E-3,1.549E0,4.9938E-3,1.46101E1,2.697E-4,1.947E3,1.2533061E1,1.301E0,6.4059E-3,1.8914E2,2.309E1,1.8257E1,2.8119E2,3.818E0,2.83E2,2.8279717E0,5.96888E3,1.6E3,1.883E3,5.532395E-3,1.1150953E2,1.1424373E0,5.660569E0,1.433E0,1.0192829E2,1.30216E3,-5.719421E1,2.3116941E0,1.637E0,8.972241E1,4.44E0,4.382442E1,2.9678934E2,4.508763E1,1.662E1,2.227E0,6.381E3,1.976E0,4.147E-3,8.4198E2,-2.8176384E-2,6.9541E2,3.343E0,2.657E0,4.416E3,3.4366E0,2.350745E0,1.7514789E0,-2.4162607E-2,9.5998105E-3,7.979E-4,1.921E0,4.9906824E-4,5.543E3,1.1709026E-2,-1.1668851E-2,5.25E-1,6.251395E-4,2.1394119E-2,-2.8695589E-2,3.847429E-3,-3.1165063E-2,-1.8210262E-3,2.2442162E-2,-1.9486528E-2,-1.7513806E-2,1.1822153E-2,-2.1286625E-2,8.10971E-4,-1.1175078E-2,4.509084E-3,9.801008E-3,-2.3638746E-2,-8.215636E-3,-2.623529E-2,8.933333E-3,-1.6420836E-2,-1.1289189E-2,-3.0512651E-2,-3.1594325E-2,-6.6097486E-3,-2.3285108E-2,2.5233032E-2,-5.466653E-3,3.0609796E-2,-1.0174468E-2,1.3869107E-2,6.6577718E-3,-2.0367717E-2,-4.769659E-3,-3.131867E-2,-3.5470165E-3,2.0140082E-2,-2.6169693E-2,5.3052776E-3,-5.2763266E-3,2.335072E-2,-8.4046265E-3,-2.592702E-2,-2.3064414E-2,-3.343548E-2,-1.2873732E-2,-3.0254783E-2,-1.1668851E-2,-3.5652168E-2],"split_indices":[5,7,5,2,4,10,4,5,4,7,5,3,4,6,5,3,6,9,7,2,8,7,7,0,0,11,2,3,2,6,1,2,10,2,9,1,0,1,6,3,8,3,4,6,0,6,3,3,8,3,11,2,0,0,4,3,0,8,0,0,10,0,0,0,0,0,0,0,0,0,0,0,0,0,0,0,0,0,0,0,0,0,0,0,0,0,0,0,0,0,0,0,0,0,0,0,0,0,0,0,0,0,0,0,0,0,0,0,0],"split_type":[0,0,0,0,0,0,0,0,0,0,0,0,0,0,0,0,0,0,0,0,0,0,0,0,0,0,0,0,0,0,0,0,0,0,0,0,0,0,0,0,0,0,0,0,0,0,0,0,0,0,0,0,0,0,0,0,0,0,0,0,0,0,0,0,0,0,0,0,0,0,0,0,0,0,0,0,0,0,0,0,0,0,0,0,0,0,0,0,0,0,0,0,0,0,0,0,0,0,0,0,0,0,0,0,0,0,0,0,0],"sum_hessian":[2.063651E3,1.6278156E3,4.358354E2,1.2476536E3,3.801619E2,5.639009E1,3.794453E2,1.0737695E3,1.7388412E2,3.3418375E2,4.597815E1,3.0564663E1,2.5825428E1,1.3467523E2,2.4477008E2,1.0471427E3,2.6626831E1,4.4647034E1,1.2923709E2,1.8131392E2,1.5286981E2,8.217459E0,3.776069E1,1.9962014E0,2.8568462E1,1.3203987E1,1.2621441E1,3.884362E1,9.583162E1,8.463218E0,2.3630685E2,1.0319512E3,1.519154E1,1.8415417E1,8.211414E0,5.2349305E0,3.9412106E1,7.643102E1,5.2806065E1,1.3366489E2,4.7649048E1,4.8031277E1,1.0483854E2,3.238536E0,4.9789224E0,2.9795673E1,7.9650164E0,3.7410145E0,2.4827448E1,2.4846826E0,1.0719304E1,1.0876264E1,1.7451768E0,2.2439153E0,3.6599705E1,9.433682E1,1.4947975E0,7.220198E0,1.2430196E0,1.2426629E0,2.350642E2,7.493636E1,9.570148E2,1.3446084E1,1.7454566E0,1.6424686E1,1.9907309E0,5.475422E0,2.7359927E0,2.4954286E0,2.739502E0,3.5168106E1,4.244E0,4.7987194E1,2.844383E1,5.0307957E1,2.4981065E0,7.37527E1,5.991218E1,3.100312E1,1.6645927E1,2.6404287E1,2.162699E1,1.03348694E2,1.489846E0,1.2448636E0,1.9936724E0,1.2448636E0,2.855081E1,4.9768734E0,2.9881427E0,1.495219E0,2.2457955E0,1.2497332E0,2.3577715E1,1.2468326E0,1.23785E0,8.227276E0,2.4920287E0,1.2471926E0,9.629071E0,1.2469566E1,2.4130138E1,2.0901081E1,7.343574E1,2.749318E0,4.4708805E0,1.2426629E0,2.3382153E2],"tree_param":{"num_deleted":"0","num_feature":"12","num_nodes":"109","size_leaf_vector":"1"}},{"base_weights":[-1.8379079E-3,3.9463374E-1,-1.4821168E0,7.425019E-1,-7.453025E-1,-7.103146E-1,-1.5947936E0,8.9838773E-1,-2.1810119E-1,-9.5602936E-1,7.749501E-1,-1.2669789E0,-2.9351447E-2,-1.3494456E0,-1.7239319E0,9.4360816E-1,-8.4458846E-1,-8.4141374E-1,1.9166493E-3,-5.96047E-1,-1.3771366E0,-7.756471E-1,1.1239092E0,1.010028E-1,-1.4010854E0,-5.1335925E-1,7.8618073E-1,-1.4715152E0,-7.4104214E-1,-9.757398E-1,-1.7465479E0,9.8034763E-1,-1.0243438E0,-1.383814E0,3.864329E-1,-1.3461722E-1,-9.296932E-1,-1.4838906E-1,6.7653424E-1,-8.055634E-1,-4.044142E-3,-1.0013434E0,-1.538411E0,2.6958367E-1,-2.7749531E-2,1.4238585E0,-2.9650785E-2,-5.357432E-3,7.853411E-3,-5.1476526E-1,-1.5129774E0,6.7961437E-1,-8.059695E-1,-1.1346114E-2,1.1239123E0,-1.0180181E0,-1.573613E0,3.859328E-3,-1.2073326E0,-1.2816E0,1.1585142E-2,-1.1545528E-2,-1.7502664E0,6.128107E-4,2.1101031E-2,-3.1384524E-2,1.4352101E-3,-3.0525412E-2,-1.7966346E-3,2.2093216E-2,-1.919537E-2,-1.7262032E-2,1.1654598E-2,-2.0893585E-2,7.9786143E-4,-7.989527E-3,4.7741616E-3,2.1794217E-2,1.8031201E-3,-8.05245E-3,-2.5749106E-2,8.765552E-3,-1.609717E-2,-1.1077788E-2,-2.9996421E-2,-3.105227E-2,-6.5322276E-3,-2.3014955E-2,2.4923159E-2,-5.4052947E-3,3.0091666E-2,-1.0004903E-2,1.3667347E-2,6.5795225E-3,-2.0099675E-2,-4.716498E-3,-3.1404603E-2,-3.5079392E-3,2.2698645E-2,-2.2294242E-2,7.49894E-3,1.5898678E-3,2.7496394E-2,-2.616984E-2,8.495061E-4,-2.2281786E-2,-3.290835E-2,1.1404485E-2,-1.9308174E-2,-2.9078202E-2,-3.0230896E-3,-1.2687219E-2,-2.98257E-2,-1.1545528E-2,-3.508049E-2],"categories":[],"categories_nodes":[],"categories_segments":[],"categories_sizes":[],"default_left":[0,0,0,0,0,0,0,0,0,0,0,0,0,0,0,0,0,0,0,0,0,0,0,0,0,0,0,0,0,0,0,0,0,0,0,0,0,0,0,0,0,0,0,0,0,0,0,0,0,0,0,0,0,0,0,0,0,0,0,0,0,0,0,0,0,0,0,0,0,0,0,0,0,0,0,0,0,0,0,0,0,0,0,0,0,0,0,0,0,0,0,0,0,0,0,0,0,0,0,0,0,0,0,0,0,0,0,0,0,0,0,0,0,0,0],"id":8,"left_children":[1,3,5,7,9,11,13,15,17,19,21,23,25,27,29,31,33,35,37,39,41,43,45,47,49,51,53,55,57,59,61,63,65,67,69,71,73,75,77,79,81,83,85,87,-1,89,91,-1,-1,93,95,97,99,-1,101,103,105,107,109,111,-1,-1,113,-1,-1,-1,-1,-1,-1,-1,-1,-1,-1,-1,-1,-1,-1,-1,-1,-1,-1,-1,-1,-1,-1,-1,-1,-1,-1,-1,-1,-1,-1,-1,-1,-1,-1,-1,-1,-1,-1,-1,-1,-1,-1,-1,-1,-1,-1,-1,-1,-1,-1,-1,-1],"loss_changes":[1.2098373E3,6.4532294E2,3.6739014E1,1.8682062E2,1.2269133E2,2.1676355E1,9.6883545E0,8.5327515E1,2.3975487E1,4.992807E1,2.6246094E1,5.9191513E0,1.0977435E1,8.963135E0,2.4387207E0,7.661908E1,1.8887936E1,2.720684E0,1.3302897E1,2.2601936E1,7.764038E0,6.2615848E0,1.3428631E1,5.0805104E-1,2.0722694E0,6.6272135E0,5.378837E0,3.5714417E0,8.5617895E0,5.236685E0,1.7456055E-2,7.28421E1,1.1851892E1,3.4473305E0,9.959034E0,3.7604203E0,4.543167E0,1.0524398E1,5.693099E0,2.5618362E1,1.7583637E1,1.0090958E1,1.3096313E0,7.3103824E0,0E0,4.6084633E0,3.3494291E0,0E0,0E0,2.29043E0,1.4584961E0,1.7457088E0,5.6838627E0,0E0,2.1538591E0,7.2530136E0,1.1156616E0,6.30434E0,3.7269955E0,1.6790009E-1,0E0,0E0,2.3986816E-2,0E0,0E0,0E0,0E0,0E0,0E0,0E0,0E0,0E0,0E0,0E0,0E0,0E0,0E0,0E0,0E0,0E0,0E0,0E0,0E0,0E0,0E0,0E0,0E0,0E0,0E0,0E0,0E0,0E0,0E0,0E0,0E0,0E0,0E0,0E0,0E0,0E0,0E0,0E0,0E0,0E0,0E0,0E0,0E0,0E0,0E0,0E0,0E0,0E0,0E0,0E0,0E0],"parents":[2147483647,0,0,1,1,2,2,3,3,4,4,5,5,6,6,7,7,8,8,9,9,10,10,11,11,12,12,13,13,14,14,15,15,16,16,17,17,18,18,19,19,20,20,21,21,22,22,23,23,24,24,25,25,26,26,27,27,28,28,29,29,30,30,31,31,32,32,33,33,34,34,35,35,36,36,37,37,38,38,39,39,40,40,41,41,42,42,43,43,45,45,46,46,49,49,50,50,51,51,52,52,54,54,55,55,56,56,57,57,58,58,59,59,62,62],"right_children":[2,4,6,8,10,12,14,16,18,20,22,24,26,28,30,32,34,36,38,40,42,44,46,48,50,52,54,56,58,60,62,64,66,68,70,72,74,76,78,80,82,84,86,88,-1,90,92,-1,-1,94,96,98,100,-1,102,104,106,108,110,112,-1,-1,114,-1,-1,-1,-1,-1,-1,-1,-1,-1,-1,-1,-1,-1,-1,-1,-1,-1,-1,-1,-1,-1,-1,-1,-1,-1,-1,-1,-1,-1,-1,-1,-1,-1,-1,-1,-1,-1,-1,-1,-1,-1,-1,-1,-1,-1,-1,-1,-1,-1,-1,-1,-1],"split_conditions":[1.745983E1,1.395E3,2.143E1,1.6941507E2,4.9938E-3,1.549E0,4.9938E-3,1.46101E1,2.697E-4,1.947E3,1.2533061E1,1.545E0,7.641404E-3,4.4145992E1,2.309E1,1.645E1,2.8119E2,3.818E0,4.754723E1,2.8279717E0,5.96888E3,1.6E3,1.883E3,4.82E3,1.1150953E2,1.1424373E0,1.5746602E3,1.921E0,9.5095445E-4,1.30216E3,-5.719421E1,2.3116941E0,3.414205E1,8.972241E1,4.44E0,4.382442E1,2.9678934E2,2.83E2,3.685224E2,2.227E0,6.381E3,1.976E0,4.147E-3,8.4198E2,-2.7749531E-2,6.9541E2,3.343E0,-5.357432E-3,7.853411E-3,2.657E0,4.416E3,3.4366E0,2.350745E0,-1.1346114E-2,1.1775099E0,3.5841E0,8.6E2,1.198E1,3.14E-3,5.543E3,1.1585142E-2,-1.1545528E-2,5.25E-1,6.128107E-4,2.1101031E-2,-3.1384524E-2,1.4352101E-3,-3.0525412E-2,-1.7966346E-3,2.2093216E-2,-1.919537E-2,-1.7262032E-2,1.1654598E-2,-2.0893585E-2,7.9786143E-4,-7.989527E-3,4.7741616E-3,2.1794217E-2,1.8031201E-3,-8.05245E-3,-2.5749106E-2,8.765552E-3,-1.609717E-2,-1.1077788E-2,-2.9996421E-2,-3.105227E-2,-6.5322276E-3,-2.3014955E-2,2.4923159E-2,-5.4052947E-3,3.0091666E-2,-1.0004903E-2,1.3667347E-2,6.5795225E-3,-2.0099675E-2,-4.716498E-3,-3.1404603E-2,-3.5079392E-3,2.2698645E-2,-2.2294242E-2,7.49894E-3,1.5898678E-3,2.7496394E-2,-2.616984E-2,8.495061E-4,-2.2281786E-2,-3.290835E-2,1.1404485E-2,-1.9308174E-2,-2.9078202E-2,-3.0230896E-3,-1.2687219E-2,-2.98257E-2,-1.1545528E-2,-3.508049E-2],"split_indices":[5,7,5,2,4,10,4,5,4,7,5,3,4,2,5,3,6,9,1,2,8,7,7,8,0,11,7,3,4,6,1,2,2,2,9,1,0,7,2,3,8,3,4,6,0,6,3,0,0,3,8,3,11,0,11,2,7,3,4,8,0,0,10,0,0,0,0,0,0,0,0,0,0,0,0,0,0,0,0,0,0,0,0,0,0,0,0,0,0,0,0,0,0,0,0,0,0,0,0,0,0,0,0,0,0,0,0,0,0,0,0,0,0,0,0],"split_type":[0,0,0,0,0,0,0,0,0,0,0,0,0,0,0,0,0,0,0,0,0,0,0,0,0,0,0,0,0,0,0,0,0,0,0,0,0,0,0,0,0,0,0,0,0,0,0,0,0,0,0,0,0,0,0,0,0,0,0,0,0,0,0,0,0,0,0,0,0,0,0,0,0,0,0,0,0,0,0,0,0,0,0,0,0,0,0,0,0,0,0,0,0,0,0,0,0,0,0,0,0,0,0,0,0,0,0,0,0,0,0,0,0,0,0],"sum_hessian":[2.059446E3,1.6249578E3,4.344884E2,1.2452885E3,3.7966928E2,5.6281406E1,3.78207E2,1.0714752E3,1.738133E2,3.3377487E2,4.5894413E1,3.0493462E1,2.5787943E1,1.3436974E2,2.4383727E2,1.0448264E3,2.6648745E1,4.4609596E1,1.2920369E2,1.8124957E2,1.525253E2,8.206437E0,3.7687977E1,2.744496E0,2.7748966E1,1.6415863E1,9.37208E0,1.1073359E2,2.3636148E1,8.449536E0,2.3538773E2,1.0261708E3,1.8655636E1,1.84451E1,8.203644E0,5.2334743E0,3.937612E1,1.0629996E2,2.2903732E1,1.3360466E2,4.764492E1,4.7966145E1,1.0455916E2,3.2365665E0,4.96987E0,2.9724642E1,7.9633336E0,1.2478797E0,1.4966162E0,3.7382274E0,2.4010738E1,2.9728687E0,1.3442995E1,1.7358338E0,7.6362457E0,2.2364832E1,8.836875E1,9.481356E0,1.4154792E1,7.207646E0,1.2418901E0,1.2415104E0,2.3414621E2,7.493507E1,9.512357E2,1.2172799E1,6.4828362E0,1.6454124E1,1.9909761E0,5.4665456E0,2.7370985E0,2.49577E0,2.7377043E0,3.513224E1,4.2438827E0,6.44579E1,4.1842056E1,1.2932675E1,9.971057E0,7.376255E1,5.984211E1,3.0983955E1,1.6660967E1,2.6389238E1,2.1576904E1,1.0306991E2,1.4892492E0,1.2460124E0,1.990554E0,1.2451633E0,2.8479479E1,4.976945E0,2.9863884E0,1.4946406E0,2.2435868E0,1.2498132E0,2.2760925E1,1.2466494E0,1.7262193E0,1.070128E1,2.7417154E0,1.7342281E0,5.902018E0,1.7372557E1,4.992274E0,1.4174224E1,7.419453E1,6.244343E0,3.237013E0,1.1170361E1,2.984432E0,2.748647E0,4.458999E0,1.2415104E0,2.3290471E2],"tree_param":{"num_deleted":"0","num_feature":"12","num_nodes":"115","size_leaf_vector":"1"}},{"base_weights":[-1.9994688E-3,3.874043E-1,-1.4582162E0,7.291357E-1,-7.318448E-1,-6.979565E-1,-1.5693998E0,8.8245356E-1,-2.1386233E-1,-9.3865234E-1,7.6112527E-1,-1.2463925E0,-2.7962351E-2,-1.3269545E0,-1.6972295E0,9.269654E-1,-8.283872E-1,-8.259726E-1,2.0374272E-3,-5.846405E-1,-1.3536586E0,-7.6408756E-1,1.104613E0,5.4651205E-3,-1.3587766E0,-6.115566E-1,6.2961566E-1,-1.5071777E0,-9.130731E-1,-9.611196E-1,-1.7195247E0,9.6309835E-1,-1.0070318E0,-1.3562902E0,3.7942204E-1,-1.3286504E-1,-9.125791E-1,-1.4546168E-1,6.6461515E-1,-7.901874E-1,-4.110735E-3,-9.7406703E-1,-1.5083501E0,2.6483577E-1,-2.7337488E-2,1.3999828E0,-2.865478E-2,-5.0767505E-1,-1.4627885E0,-1.0653182E0,1.7741609E-1,1.0128225E0,-2.3690216E-2,-1.5312911E0,-7.388842E-3,-4.2539987E-1,-1.2724079E0,-1.2634106E0,1.14629865E-2,-1.1423922E-2,-1.7231687E0,6.007291E-4,2.0733641E-2,-3.0878862E-2,1.4104069E-3,-2.9913234E-2,-1.7725731E-3,2.1753859E-2,-1.891118E-2,-1.7015725E-2,1.1489943E-2,-2.0511849E-2,7.849636E-4,-7.831748E-3,4.6821856E-3,2.1422535E-2,1.7704945E-3,-7.89278E-3,-2.5279677E-2,8.601147E-3,-1.578208E-2,-1.0652448E-2,-2.9281609E-2,-2.1295266E-2,-3.1475697E-2,-2.2751333E-2,2.4622083E-2,-5.3446707E-3,2.9594157E-2,-9.838578E-3,1.3469415E-2,6.5022716E-3,-1.9837873E-2,-4.6639596E-3,-3.0322943E-2,-2.9395431E-2,-1.0116264E-2,1.5504348E-2,-1.7208533E-2,-1.508145E-3,2.5055708E-2,-2.9722091E-3,-3.0978901E-2,-6.100973E-4,-2.3155477E-2,3.5781534E-3,-2.7833961E-2,-1.2504141E-2,-2.941276E-2,-1.1423922E-2,-3.453703E-2],"categories":[],"categories_nodes":[],"categories_segments":[],"categories_sizes":[],"default_left":[0,0,0,0,0,0,0,0,0,0,0,0,0,0,0,0,0,0,0,0,0,0,0,0,0,0,0,0,0,0,0,0,0,0,0,0,0,0,0,0,0,0,0,0,0,0,0,0,0,0,0,0,0,0,0,0,0,0,0,0,0,0,0,0,0,0,0,0,0,0,0,0,0,0,0,0,0,0,0,0,0,0,0,0,0,0,0,0,0,0,0,0,0,0,0,0,0,0,0,0,0,0,0,0,0,0,0,0,0,0,0],"id":9,"left_children":[1,3,5,7,9,11,13,15,17,19,21,23,25,27,29,31,33,35,37,39,41,43,45,-1,47,49,51,53,55,57,59,61,63,65,67,69,71,73,75,77,79,81,83,85,-1,87,89,91,93,95,97,99,-1,101,-1,103,105,107,-1,-1,109,-1,-1,-1,-1,-1,-1,-1,-1,-1,-1,-1,-1,-1,-1,-1,-1,-1,-1,-1,-1,-1,-1,-1,-1,-1,-1,-1,-1,-1,-1,-1,-1,-1,-1,-1,-1,-1,-1,-1,-1,-1,-1,-1,-1,-1,-1,-1,-1,-1,-1],"loss_changes":[1.1662987E3,6.212311E2,3.5585876E1,1.8000507E2,1.1806818E2,2.0971067E1,9.455994E0,8.225049E1,2.3094112E1,4.8321198E1,2.5360092E1,5.736004E0,1.06524105E1,8.694107E0,2.3481445E0,7.387872E1,1.815122E1,2.6138859E0,1.2818487E1,2.1733326E1,7.522278E0,6.0635333E0,1.2961922E1,0E0,1.8614616E0,5.445256E0,1.0287651E1,1.9723816E0,7.080036E0,5.099477E0,5.493164E-4,7.032324E1,1.1462276E1,3.3067017E0,9.656709E0,3.6533096E0,4.3788567E0,1.0115118E1,5.4979544E0,2.471215E1,1.6915958E1,9.421139E0,1.4291687E0,7.1375113E0,0E0,4.4683495E0,3.2461522E0,2.2318716E0,1.3313866E0,1.3981981E0,4.5248847E0,3.0536337E0,0E0,1.9734344E0,0E0,5.735299E0,4.4972496E0,1.6411209E-1,0E0,0E0,6.8359375E-3,0E0,0E0,0E0,0E0,0E0,0E0,0E0,0E0,0E0,0E0,0E0,0E0,0E0,0E0,0E0,0E0,0E0,0E0,0E0,0E0,0E0,0E0,0E0,0E0,0E0,0E0,0E0,0E0,0E0,0E0,0E0,0E0,0E0,0E0,0E0,0E0,0E0,0E0,0E0,0E0,0E0,0E0,0E0,0E0,0E0,0E0,0E0,0E0,0E0,0E0],"parents":[2147483647,0,0,1,1,2,2,3,3,4,4,5,5,6,6,7,7,8,8,9,9,10,10,11,11,12,12,13,13,14,14,15,15,16,16,17,17,18,18,19,19,20,20,21,21,22,22,24,24,25,25,26,26,27,27,28,28,29,29,30,30,31,31,32,32,33,33,34,34,35,35,36,36,37,37,38,38,39,39,40,40,41,41,42,42,43,43,45,45,46,46,47,47,48,48,49,49,50,50,51,51,53,53,55,55,56,56,57,57,60,60],"right_children":[2,4,6,8,10,12,14,16,18,20,22,24,26,28,30,32,34,36,38,40,42,44,46,-1,48,50,52,54,56,58,60,62,64,66,68,70,72,74,76,78,80,82,84,86,-1,88,90,92,94,96,98,100,-1,102,-1,104,106,108,-1,-1,110,-1,-1,-1,-1,-1,-1,-1,-1,-1,-1,-1,-1,-1,-1,-1,-1,-1,-1,-1,-1,-1,-1,-1,-1,-1,-1,-1,-1,-1,-1,-1,-1,-1,-1,-1,-1,-1,-1,-1,-1,-1,-1,-1,-1,-1,-1,-1,-1,-1,-1],"split_conditions":[1.745983E1,1.395E3,2.143E1,1.6941507E2,4.9938E-3,1.549E0,4.9938E-3,1.46101E1,2.697E-4,1.947E3,1.2533061E1,1.301E0,6.7324885E-3,1.3071419E1,2.309E1,1.645E1,2.8119E2,3.818E0,4.754723E1,2.8279717E0,5.943E3,1.6E3,1.883E3,5.4651205E-3,1.1150953E2,3.5065E0,5.54868E0,3.0086398E2,9.884E-4,1.30216E3,-5.719421E1,2.3116941E0,3.414205E1,8.972241E1,4.44E0,4.382442E1,2.9678934E2,2.83E2,3.685224E2,2.227E0,6.381E3,1.976E0,2.109E3,8.4198E2,-2.7337488E-2,6.9541E2,3.343E0,2.657E0,4.416E3,1.892E1,6.071E3,2.514E0,-2.3690216E-2,6.73E-1,-7.388842E-3,1.198E1,2.44651E1,5.543E3,1.14629865E-2,-1.1423922E-2,5.25E-1,6.007291E-4,2.0733641E-2,-3.0878862E-2,1.4104069E-3,-2.9913234E-2,-1.7725731E-3,2.1753859E-2,-1.891118E-2,-1.7015725E-2,1.1489943E-2,-2.0511849E-2,7.849636E-4,-7.831748E-3,4.6821856E-3,2.1422535E-2,1.7704945E-3,-7.89278E-3,-2.5279677E-2,8.601147E-3,-1.578208E-2,-1.0652448E-2,-2.9281609E-2,-2.1295266E-2,-3.1475697E-2,-2.2751333E-2,2.4622083E-2,-5.3446707E-3,2.9594157E-2,-9.838578E-3,1.3469415E-2,6.5022716E-3,-1.9837873E-2,-4.6639596E-3,-3.0322943E-2,-2.9395431E-2,-1.0116264E-2,1.5504348E-2,-1.7208533E-2,-1.508145E-3,2.5055708E-2,-2.9722091E-3,-3.0978901E-2,-6.100973E-4,-2.3155477E-2,3.5781534E-3,-2.7833961E-2,-1.2504141E-2,-2.941276E-2,-1.1423922E-2,-3.453703E-2],"split_indices":[5,7,5,2,4,10,4,5,4,7,5,3,4,2,5,3,6,9,1,2,8,7,7,0,0,3,2,0,4,6,1,2,2,2,9,1,0,7,2,3,8,3,7,6,0,6,3,3,8,5,8,3,0,10,0,3,5,8,0,0,10,0,0,0,0,0,0,0,0,0,0,0,0,0,0,0,0,0,0,0,0,0,0,0,0,0,0,0,0,0,0,0,0,0,0,0,0,0,0,0,0,0,0,0,0,0,0,0,0,0,0],"split_type":[0,0,0,0,0,0,0,0,0,0,0,0,0,0,0,0,0,0,0,0,0,0,0,0,0,0,0,0,0,0,0,0,0,0,0,0,0,0,0,0,0,0,0,0,0,0,0,0,0,0,0,0,0,0,0,0,0,0,0,0,0,0,0,0,0,0,0,0,0,0,0,0,0,0,0,0,0,0,0,0,0,0,0,0,0,0,0,0,0,0,0,0,0,0,0,0,0,0,0,0,0,0,0,0,0,0,0,0,0,0,0],"sum_hessian":[2.0547637E3,1.6218123E3,4.329514E2,1.2427285E3,3.7908383E2,5.616691E1,3.7678445E2,1.0689902E3,1.7373817E2,3.3328778E2,4.579605E1,3.0412167E1,2.5754742E1,1.3400583E2,2.4277864E2,1.0423296E3,2.6660667E1,4.4564625E1,1.2917355E2,1.8116107E2,1.5212672E2,8.192742E0,3.760331E1,1.9956529E0,2.8416513E1,1.3682044E1,1.2072699E1,9.151455E1,4.249127E1,8.433798E0,2.3434485E2,1.02370575E3,1.8623882E1,1.8466494E1,8.194174E0,5.231481E0,3.9333145E1,1.0629193E2,2.2881617E1,1.3352353E2,4.763754E1,4.6158096E1,1.0596863E2,3.23368E0,4.959062E0,2.9642159E1,7.96115E0,3.7349916E0,2.4681522E1,8.463928E0,5.218116E0,1.0331935E1,1.7407628E0,8.9276505E1,2.238048E0,1.8952978E1,2.353829E1,7.193107E0,1.2406905E0,1.2402887E0,2.3310457E2,7.4933784E1,9.48772E2,1.2141378E1,6.482503E0,1.6475279E1,1.9912148E0,5.4564867E0,2.7376869E0,2.4957337E0,2.7357473E0,3.508938E1,4.2437663E0,6.446146E1,4.1830482E1,1.2911476E1,9.97014E0,7.376981E1,5.975372E1,3.0963978E1,1.6673563E1,2.538034E1,2.0777758E1,1.5842622E1,9.012601E1,1.2468193E0,1.9868608E0,1.2454416E0,2.8396717E1,4.9767675E0,2.9843826E0,1.4940367E0,2.2409549E0,1.2498783E0,2.3431644E1,3.9683697E0,4.4955583E0,3.4715433E0,1.7465726E0,1.9905533E0,8.341382E0,1.2442411E0,8.8032265E1,1.2990286E1,5.962692E0,1.7498171E0,2.1788473E1,2.747763E0,4.4453444E0,1.2402887E0,2.3186427E2],"tree_param":{"num_deleted":"0","num_feature":"12","num_nodes":"111","size_leaf_vector":"1"}},{"base_weights":[-2.1795847E-3,3.803613E-1,-1.4354326E0,7.161173E-1,-7.188373E-1,-6.8718785E-1,-1.5450392E0,8.669435E-1,-2.0972057E-1,-9.218413E-1,7.477727E-1,-1.2264194E0,-2.899656E-2,-1.3050919E0,-1.6717927E0,9.07133E-1,-9.6237165E-1,-8.109445E-1,2.1533773E-3,-5.7352537E-1,-1.3311251E0,-7.5291777E-1,1.0859755E0,1.0283582E-1,-1.3576102E0,-6.028742E-1,6.185757E-1,-1.4244355E0,-7.1233E-1,-9.4692403E-1,-3.3875987E-2,9.390539E-1,-1.1903338E0,1.1055624E-1,-1.3990641E0,-1.311458E-1,-8.959296E-1,-1.4259525E-1,6.529793E-1,-7.752204E-1,-4.1734893E-3,-9.3804044E-1,-1.4759738E0,2.6022598E-1,-2.6939418E-2,1.3770076E0,-2.7683217E-2,-5.3592236E-3,7.91311E-3,-5.007312E-1,-1.4661379E0,-1.0495602E0,1.7375365E-1,9.972531E-1,-2.3417126E-2,-9.7671044E-1,-1.5257238E0,1.0536722E-2,-1.1666809E0,-1.2457829E0,1.1342523E-2,-4.7006118E-4,2.0153146E-2,-2.750253E-2,4.2408193E-3,1.9230654E-2,-2.718229E-2,-3.1408098E-2,-1.7488376E-3,-1.6774688E-2,1.1328115E-2,-2.014084E-2,7.722773E-4,-7.6773297E-3,4.5920056E-3,2.1061223E-2,1.7384586E-3,-7.7365306E-3,-2.4825973E-2,8.440034E-3,-1.5475199E-2,-9.685014E-3,-2.8424451E-2,-2.9784001E-2,-6.108668E-3,-2.2494012E-2,2.432941E-2,-5.28477E-3,2.9115908E-2,-9.675405E-3,1.3275194E-2,6.4260014E-3,-1.9582057E-2,-4.6120365E-3,-3.0436236E-2,-2.8990677E-2,-9.953001E-3,1.7168757E-2,-1.4343123E-2,-1.487984E-3,2.4686849E-2,-2.5265511E-2,1.2262099E-3,-2.2239687E-2,-3.207469E-2,1.5997462E-2,-1.3123574E-2,-2.821461E-2,-2.6052864E-3,-1.2324399E-2,-2.9015038E-2],"categories":[],"categories_nodes":[],"categories_segments":[],"categories_sizes":[],"default_left":[0,0,0,0,0,0,0,0,0,0,0,0,0,0,0,0,0,0,0,0,0,0,0,0,0,0,0,0,0,0,0,0,0,0,0,0,0,0,0,0,0,0,0,0,0,0,0,0,0,0,0,0,0,0,0,0,0,0,0,0,0,0,0,0,0,0,0,0,0,0,0,0,0,0,0,0,0,0,0,0,0,0,0,0,0,0,0,0,0,0,0,0,0,0,0,0,0,0,0,0,0,0,0,0,0,0,0,0,0,0,0],"id":10,"left_children":[1,3,5,7,9,11,13,15,17,19,21,23,25,27,29,31,33,35,37,39,41,43,45,47,49,51,53,55,57,59,-1,61,63,65,67,69,71,73,75,77,79,81,83,85,-1,87,89,-1,-1,91,93,95,97,99,-1,101,103,105,107,109,-1,-1,-1,-1,-1,-1,-1,-1,-1,-1,-1,-1,-1,-1,-1,-1,-1,-1,-1,-1,-1,-1,-1,-1,-1,-1,-1,-1,-1,-1,-1,-1,-1,-1,-1,-1,-1,-1,-1,-1,-1,-1,-1,-1,-1,-1,-1,-1,-1,-1,-1],"loss_changes":[1.1248585E3,5.9817554E2,3.4385925E1,1.734743E2,1.1365103E2,2.0203852E1,9.259949E0,7.9342896E1,2.2249447E1,4.681299E1,2.451151E1,5.6016045E0,1.02970085E1,8.506897E0,2.2661133E0,7.107764E1,1.1132654E1,2.5118904E0,1.2352964E1,2.0902538E1,7.3086853E0,5.8735003E0,1.2518787E1,5.124394E-1,1.9234924E0,5.269511E0,1.00039E1,3.5453033E0,8.077833E0,4.967187E0,0E0,6.802637E1,4.4651337E0,1.0942498E1,3.6215286E0,3.5495584E0,4.2219124E0,9.7220335E0,5.3113165E0,2.3853302E1,1.6275177E1,8.927658E0,1.2454071E0,6.9699597E0,0E0,4.3349648E0,3.1462402E0,0E0,0E0,2.1751168E0,1.3582039E0,1.365097E0,4.40522E0,2.963583E0,0E0,6.997736E0,1.0819092E0,6.0343504E0,3.6326427E0,1.6114426E-1,0E0,0E0,0E0,0E0,0E0,0E0,0E0,0E0,0E0,0E0,0E0,0E0,0E0,0E0,0E0,0E0,0E0,0E0,0E0,0E0,0E0,0E0,0E0,0E0,0E0,0E0,0E0,0E0,0E0,0E0,0E0,0E0,0E0,0E0,0E0,0E0,0E0,0E0,0E0,0E0,0E0,0E0,0E0,0E0,0E0,0E0,0E0,0E0,0E0,0E0,0E0],"parents":[2147483647,0,0,1,1,2,2,3,3,4,4,5,5,6,6,7,7,8,8,9,9,10,10,11,11,12,12,13,13,14,14,15,15,16,16,17,17,18,18,19,19,20,20,21,21,22,22,23,23,24,24,25,25,26,26,27,27,28,28,29,29,31,31,32,32,33,33,34,34,35,35,36,36,37,37,38,38,39,39,40,40,41,41,42,42,43,43,45,45,46,46,49,49,50,50,51,51,52,52,53,53,55,55,56,56,57,57,58,58,59,59],"right_children":[2,4,6,8,10,12,14,16,18,20,22,24,26,28,30,32,34,36,38,40,42,44,46,48,50,52,54,56,58,60,-1,62,64,66,68,70,72,74,76,78,80,82,84,86,-1,88,90,-1,-1,92,94,96,98,100,-1,102,104,106,108,110,-1,-1,-1,-1,-1,-1,-1,-1,-1,-1,-1,-1,-1,-1,-1,-1,-1,-1,-1,-1,-1,-1,-1,-1,-1,-1,-1,-1,-1,-1,-1,-1,-1,-1,-1,-1,-1,-1,-1,-1,-1,-1,-1,-1,-1,-1,-1,-1,-1,-1,-1],"split_conditions":[1.745983E1,1.395E3,2.143E1,1.6941507E2,4.9938E-3,1.549E0,4.9938E-3,1.4876E1,2.697E-4,1.947E3,1.2533061E1,1.545E0,6.7324885E-3,4.4145992E1,2.309E1,1.8257E1,5.0037856E0,3.818E0,4.754723E1,2.8279717E0,5.911E3,1.6E3,1.883E3,2.872405E2,1.1150953E2,3.5065E0,5.54868E0,1.921E0,9.5095445E-4,1.30216E3,-3.3875987E-2,2.225164E0,1.637E0,4.491E0,8.972241E1,4.382442E1,2.9678934E2,2.83E2,3.685224E2,2.227E0,6.381E3,1.976E0,4.147E-3,8.4198E2,-2.6939418E-2,6.9541E2,3.343E0,-5.3592236E-3,7.91311E-3,2.657E0,4.416E3,1.892E1,3.769E0,2.514E0,-2.3417126E-2,3.5841E0,1.5924E2,7.63871E0,3.14E-3,5.543E3,1.1342523E-2,-4.7006118E-4,2.0153146E-2,-2.750253E-2,4.2408193E-3,1.9230654E-2,-2.718229E-2,-3.1408098E-2,-1.7488376E-3,-1.6774688E-2,1.1328115E-2,-2.014084E-2,7.722773E-4,-7.6773297E-3,4.5920056E-3,2.1061223E-2,1.7384586E-3,-7.7365306E-3,-2.4825973E-2,8.440034E-3,-1.5475199E-2,-9.685014E-3,-2.8424451E-2,-2.9784001E-2,-6.108668E-3,-2.2494012E-2,2.432941E-2,-5.28477E-3,2.9115908E-2,-9.675405E-3,1.3275194E-2,6.4260014E-3,-1.9582057E-2,-4.6120365E-3,-3.0436236E-2,-2.8990677E-2,-9.953001E-3,1.7168757E-2,-1.4343123E-2,-1.487984E-3,2.4686849E-2,-2.5265511E-2,1.2262099E-3,-2.2239687E-2,-3.207469E-2,1.5997462E-2,-1.3123574E-2,-2.821461E-2,-2.6052864E-3,-1.2324399E-2,-2.9015038E-2],"split_indices":[5,7,5,2,4,10,4,5,4,7,5,3,4,2,5,3,2,9,1,2,8,7,7,0,0,3,2,3,4,6,0,2,10,9,2,1,0,7,2,3,8,3,4,6,0,6,3,0,0,3,8,5,9,3,0,2,6,3,4,8,0,0,0,0,0,0,0,0,0,0,0,0,0,0,0,0,0,0,0,0,0,0,0,0,0,0,0,0,0,0,0,0,0,0,0,0,0,0,0,0,0,0,0,0,0,0,0,0,0,0,0],"split_type":[0,0,0,0,0,0,0,0,0,0,0,0,0,0,0,0,0,0,0,0,0,0,0,0,0,0,0,0,0,0,0,0,0,0,0,0,0,0,0,0,0,0,0,0,0,0,0,0,0,0,0,0,0,0,0,0,0,0,0,0,0,0,0,0,0,0,0,0,0,0,0,0,0,0,0,0,0,0,0,0,0,0,0,0,0,0,0,0,0,0,0,0,0,0,0,0,0,0,0,0,0,0,0,0,0,0,0,0,0,0,0],"sum_hessian":[2.0496255E3,1.6184022E3,4.312233E2,1.2399894E3,3.784128E2,5.6025684E1,3.7519763E2,1.0663383E3,1.7365112E2,3.3272888E2,4.568394E1,3.0321276E1,2.5704407E1,1.335952E2,2.4160243E2,1.043908E3,2.2430212E1,4.4512573E1,1.2913855E2,1.8104987E2,1.51679E2,8.176506E0,3.7507435E1,2.743154E0,2.7578123E1,1.3664219E1,1.2040188E1,1.1003772E2,2.3557478E1,8.416112E0,2.3318631E2,1.0288031E3,1.510486E1,6.704493E0,1.57257185E1,5.228975E0,3.9283596E1,1.0628161E2,2.2856936E1,1.3342278E2,4.7627094E1,4.2855473E1,1.0882353E2,3.229913E0,4.946593E0,2.9548944E1,7.958491E0,1.2478709E0,1.4952831E0,3.7313275E0,2.3846794E1,8.451699E0,5.2125196E0,1.0302652E1,1.737536E0,2.226454E1,8.777318E1,9.469088E0,1.408839E1,7.176688E0,1.2394233E0,6.849029E1,9.6031287E2,1.3363381E1,1.741479E0,4.4649334E0,2.2395597E0,1.3734271E1,1.9914472E0,2.495336E0,2.7336388E0,3.5039948E1,4.2436504E0,6.446294E1,4.1818672E1,1.2887711E1,9.969226E0,7.377463E1,5.964814E1,3.094325E1,1.6683846E1,2.3132425E1,1.9723047E1,1.0733845E2,1.4850819E0,1.2472948E0,1.9826182E0,1.245699E0,2.8303246E1,4.9763536E0,2.9821372E0,1.4934087E0,2.2379189E0,1.249929E0,2.2596867E1,3.9573686E0,4.494331E0,2.9679964E0,2.2445233E0,1.9907209E0,8.311931E0,1.7277702E1,4.9868374E0,1.634418E1,7.1429E1,4.2443748E0,5.2247133E0,1.1110898E1,2.9774926E0,2.7466757E0,4.4300127E0],"tree_param":{"num_deleted":"0","num_feature":"12","num_nodes":"111","size_leaf_vector":"1"}},{"base_weights":[-2.3483394E-3,3.7350452E-1,-1.4135491E0,7.034081E-1,-7.0617414E-1,-6.767462E-1,-1.5216734E0,8.51807E-1,-2.0567246E-1,-9.0547425E-1,7.3486435E-1,-1.207243E0,-2.9831992E-2,-1.2840886E0,-1.647442E0,8.950287E-1,-8.010547E-1,-7.9630965E-1,2.26481E-3,-5.62689E-1,-1.3092841E0,-7.4211705E-1,1.0679572E0,1.0145652E-1,-1.336875E0,-4.9150175E-1,7.510327E-1,-1.4018142E0,-7.0043916E-1,-9.3313193E-1,-1.6691861E0,9.300621E-1,-9.7726595E-1,-1.3106465E0,3.6871803E-1,-1.2945841E-1,-8.797217E-1,-1.3978809E-1,6.416153E-1,-7.606433E-1,-4.2327135E-3,-9.492206E-1,-1.4646224E0,2.557482E-1,-2.6554542E-2,1.3548757E0,-2.6735561E-2,-5.3283535E-3,7.84398E-3,-4.93929E-1,-1.443859E0,6.711001E-1,-7.767666E-1,-1.1161246E-2,1.0801027E0,-9.6034926E-1,-1.5018605E0,1.0606392E-2,-1.1481898E0,-1.2286874E0,1.1223712E-2,-1.0950647E-2,-1.6728005E0,5.6192063E-4,2.00317E-2,-3.267442E-2,-2.0622786E-3,-2.8902497E-2,-1.7254193E-3,2.1200905E-2,-1.8422432E-2,-1.653873E-2,1.11690415E-2,-1.978001E-2,7.5979513E-4,-7.526181E-3,4.5035887E-3,2.0709747E-2,1.7070039E-3,-1.0121552E-2,-2.9213728E-2,8.282126E-3,-1.5176182E-2,-1.0436833E-2,-2.8575176E-2,-2.9568987E-2,-6.0374737E-3,-2.224277E-2,2.4044776E-2,-5.225582E-3,2.8655682E-2,-9.515302E-3,1.308457E-2,-2.270699E-2,3.041616E-3,-4.5607165E-3,-2.9976457E-2,-2.997815E-3,2.2049889E-2,-2.1608619E-2,7.5727627E-3,1.2322147E-3,2.6564674E-2,-2.4858443E-2,1.2057364E-3,-2.1860935E-2,-3.158371E-2,1.1109725E-2,-1.852082E-2,-2.777969E-2,-2.5666903E-3,-1.2147889E-2,-2.8631682E-2,-1.0950647E-2,-3.352907E-2],"categories":[],"categories_nodes":[],"categories_segments":[],"categories_sizes":[],"default_left":[0,0,0,0,0,0,0,0,0,0,0,0,0,0,0,0,0,0,0,0,0,0,0,0,0,0,0,0,0,0,0,0,0,0,0,0,0,0,0,0,0,0,0,0,0,0,0,0,0,0,0,0,0,0,0,0,0,0,0,0,0,0,0,0,0,0,0,0,0,0,0,0,0,0,0,0,0,0,0,0,0,0,0,0,0,0,0,0,0,0,0,0,0,0,0,0,0,0,0,0,0,0,0,0,0,0,0,0,0,0,0,0,0,0,0],"id":11,"left_children":[1,3,5,7,9,11,13,15,17,19,21,23,25,27,29,31,33,35,37,39,41,43,45,47,49,51,53,55,57,59,61,63,65,67,69,71,73,75,77,79,81,83,85,87,-1,89,91,-1,-1,93,95,97,99,-1,101,103,105,107,109,111,-1,-1,113,-1,-1,-1,-1,-1,-1,-1,-1,-1,-1,-1,-1,-1,-1,-1,-1,-1,-1,-1,-1,-1,-1,-1,-1,-1,-1,-1,-1,-1,-1,-1,-1,-1,-1,-1,-1,-1,-1,-1,-1,-1,-1,-1,-1,-1,-1,-1,-1,-1,-1,-1,-1],"loss_changes":[1.08526E3,5.760178E2,3.3253418E1,1.672044E2,1.0941614E2,1.9481127E1,9.073853E0,7.676849E1,2.1439598E1,4.5371063E1,2.3698229E1,5.432331E0,9.976147E0,8.23555E0,2.1905518E0,6.8987854E1,1.6969234E1,2.4144135E0,1.1905485E1,2.0107533E1,7.1216125E0,5.6910477E0,1.2097523E1,5.048645E-1,1.8550453E0,6.276029E0,5.038604E0,3.4440155E0,7.8171997E0,4.8395586E0,2.8320312E-2,6.5731445E1,1.1051058E1,3.0833473E0,9.155557E0,3.449045E0,4.071886E0,9.344474E0,5.132678E0,2.3194603E1,1.5660075E1,9.236988E0,1.2333679E0,6.8075185E0,0E0,4.207836E0,3.0495722E0,0E0,0E0,2.1314688E0,1.3122253E0,1.5660813E0,5.460231E0,0E0,2.083806E0,6.76976E0,1.0689545E0,5.8545365E0,3.5181637E0,1.5890884E-1,0E0,0E0,3.4423828E-2,0E0,0E0,0E0,0E0,0E0,0E0,0E0,0E0,0E0,0E0,0E0,0E0,0E0,0E0,0E0,0E0,0E0,0E0,0E0,0E0,0E0,0E0,0E0,0E0,0E0,0E0,0E0,0E0,0E0,0E0,0E0,0E0,0E0,0E0,0E0,0E0,0E0,0E0,0E0,0E0,0E0,0E0,0E0,0E0,0E0,0E0,0E0,0E0,0E0,0E0,0E0,0E0],"parents":[2147483647,0,0,1,1,2,2,3,3,4,4,5,5,6,6,7,7,8,8,9,9,10,10,11,11,12,12,13,13,14,14,15,15,16,16,17,17,18,18,19,19,20,20,21,21,22,22,23,23,24,24,25,25,26,26,27,27,28,28,29,29,30,30,31,31,32,32,33,33,34,34,35,35,36,36,37,37,38,38,39,39,40,40,41,41,42,42,43,43,45,45,46,46,49,49,50,50,51,51,52,52,54,54,55,55,56,56,57,57,58,58,59,59,62,62],"right_children":[2,4,6,8,10,12,14,16,18,20,22,24,26,28,30,32,34,36,38,40,42,44,46,48,50,52,54,56,58,60,62,64,66,68,70,72,74,76,78,80,82,84,86,88,-1,90,92,-1,-1,94,96,98,100,-1,102,104,106,108,110,112,-1,-1,114,-1,-1,-1,-1,-1,-1,-1,-1,-1,-1,-1,-1,-1,-1,-1,-1,-1,-1,-1,-1,-1,-1,-1,-1,-1,-1,-1,-1,-1,-1,-1,-1,-1,-1,-1,-1,-1,-1,-1,-1,-1,-1,-1,-1,-1,-1,-1,-1,-1,-1,-1,-1],"split_conditions":[1.745983E1,1.395E3,2.143E1,1.6941507E2,4.9938E-3,1.549E0,4.9938E-3,1.46101E1,2.697E-4,1.947E3,1.2533061E1,1.545E0,7.641404E-3,4.4145992E1,2.309E1,1.645E1,2.8119E2,3.818E0,4.754723E1,2.8279717E0,5.96888E3,1.6E3,1.883E3,4.82E3,1.1150953E2,1.1424373E0,1.5746602E3,1.921E0,9.5095445E-4,1.30216E3,-5.719421E1,2.3116941E0,2.1863464E1,8.972241E1,4.44E0,4.382442E1,2.9678934E2,2.83E2,3.685224E2,3.0271E0,6.381E3,1.976E0,4.147E-3,8.4198E2,-2.6554542E-2,6.9541E2,3.343E0,-5.3283535E-3,7.84398E-3,9.0984276E1,4.416E3,3.4366E0,2.350745E0,-1.1161246E-2,1.1775099E0,3.5841E0,1.5924E2,1.198E1,3.14E-3,5.543E3,1.1223712E-2,-1.0950647E-2,5.25E-1,5.6192063E-4,2.00317E-2,-3.267442E-2,-2.0622786E-3,-2.8902497E-2,-1.7254193E-3,2.1200905E-2,-1.8422432E-2,-1.653873E-2,1.11690415E-2,-1.978001E-2,7.5979513E-4,-7.526181E-3,4.5035887E-3,2.0709747E-2,1.7070039E-3,-1.0121552E-2,-2.9213728E-2,8.282126E-3,-1.5176182E-2,-1.0436833E-2,-2.8575176E-2,-2.9568987E-2,-6.0374737E-3,-2.224277E-2,2.4044776E-2,-5.225582E-3,2.8655682E-2,-9.515302E-3,1.308457E-2,-2.270699E-2,3.041616E-3,-4.5607165E-3,-2.9976457E-2,-2.997815E-3,2.2049889E-2,-2.1608619E-2,7.5727627E-3,1.2322147E-3,2.6564674E-2,-2.4858443E-2,1.2057364E-3,-2.1860935E-2,-3.158371E-2,1.1109725E-2,-1.852082E-2,-2.777969E-2,-2.5666903E-3,-1.2147889E-2,-2.8631682E-2,-1.0950647E-2,-3.352907E-2],"split_indices":[5,7,5,2,4,10,4,5,4,7,5,3,4,2,5,3,6,9,1,2,8,7,7,8,0,11,7,3,4,6,1,2,2,2,9,1,0,7,2,3,8,3,4,6,0,6,3,0,0,0,8,3,11,0,11,2,6,3,4,8,0,0,10,0,0,0,0,0,0,0,0,0,0,0,0,0,0,0,0,0,0,0,0,0,0,0,0,0,0,0,0,0,0,0,0,0,0,0,0,0,0,0,0,0,0,0,0,0,0,0,0,0,0,0,0],"split_type":[0,0,0,0,0,0,0,0,0,0,0,0,0,0,0,0,0,0,0,0,0,0,0,0,0,0,0,0,0,0,0,0,0,0,0,0,0,0,0,0,0,0,0,0,0,0,0,0,0,0,0,0,0,0,0,0,0,0,0,0,0,0,0,0,0,0,0,0,0,0,0,0,0,0,0,0,0,0,0,0,0,0,0,0,0,0,0,0,0,0,0,0,0,0,0,0,0,0,0,0,0,0,0,0,0,0,0,0,0,0,0,0,0,0,0],"sum_hessian":[2.0441058E3,1.6147705E3,4.293354E2,1.2371108E3,3.7765964E2,5.587046E1,3.7346494E2,1.063558E3,1.7355286E2,3.321007E2,4.555892E1,3.0221449E1,2.5649014E1,1.3314865E2,2.4031627E2,1.0369019E3,2.6656092E1,4.445388E1,1.2909898E2,1.8091737E2,1.5118333E2,8.157856E0,3.7401066E1,2.743346E0,2.7478104E1,1.6351877E1,9.297135E0,1.0963316E2,2.3515488E1,8.3965845E0,2.319197E2,1.01835034E3,1.8551592E1,1.8483597E1,8.172496E0,5.225979E0,3.92279E1,1.0626913E2,2.282985E1,1.333036E2,4.7613766E1,4.7708664E1,1.0347468E2,3.2253008E0,4.932555E0,2.9445686E1,7.9553795E0,1.2479671E0,1.4953787E0,3.7272542E0,2.3750849E1,2.9552312E0,1.33966465E1,1.7277964E0,7.569339E0,2.2213367E1,8.74198E1,9.463457E0,1.4052031E1,7.1584935E0,1.2380912E0,1.2347184E0,2.3068497E2,7.492127E1,9.43429E2,1.009883E1,8.452762E0,1.6491922E1,1.9916734E0,5.436697E0,2.735799E0,2.4945922E0,2.7313867E0,3.4984367E1,4.2435355E0,6.446248E1,4.1806652E1,1.2861538E1,9.968312E0,9.901899E1,3.4284626E1,3.0921833E1,1.6691933E1,2.6330418E1,2.1378246E1,1.0199033E2,1.4843417E0,1.2474496E0,1.9778512E0,1.2459363E0,2.819975E1,4.975715E0,2.9796643E0,1.49018E0,2.2370741E0,1.2499658E0,2.2500883E1,1.2427279E0,1.7125033E0,1.0659895E1,2.736752E0,1.7273726E0,5.841966E0,1.7226307E1,4.9870596E0,1.6312447E1,7.110735E1,6.2402387E0,3.2232182E0,1.1075165E1,2.976865E0,2.7453952E0,4.4130983E0,1.2347184E0,2.2945026E2],"tree_param":{"num_deleted":"0","num_feature":"12","num_nodes":"115","size_leaf_vector":"1"}},{"base_weights":[-2.5073404E-3,3.66823E-1,-1.3924398E0,6.9102716E-1,-6.9388497E-1,-6.65505E-1,-1.4993687E0,8.3707106E-1,-2.0171492E-1,-8.895761E-1,7.223743E-1,-1.1888412E0,-2.845797E-2,-1.2639225E0,-1.6242821E0,9.708204E-1,3.0152097E-1,-7.8204983E-1,2.371749E-3,-5.5212915E-1,-1.2882074E0,-7.316661E-1,1.0505214E0,5.404102E-3,-1.2980733E0,-6.062062E-1,5.792155E-1,-1.4382473E0,-8.6627525E-1,-9.19724E-1,-1.6457942E0,1.010443E0,-9.6642154E-1,4.5072526E-1,-9.295018E-1,-1.2780201E-1,-8.639345E-1,-1.3703886E-1,6.305121E-1,-7.4643666E-1,-4.2884285E-3,-9.330102E-1,-1.4417771E0,2.513968E-1,-2.6182141E-2,1.3335339E0,-2.5810968E-2,-4.8843777E-1,-1.3976007E0,5.1967543E-1,-8.88807E-1,9.316504E-1,-2.2976194E-2,-1.4622419E0,-6.5783737E-3,-3.97852E-1,-1.2136601E0,-1.2120974E0,1.1106522E-2,-1.0837136E-2,-1.6493523E0,4.058313E-3,2.2175653E-2,-3.2078583E-2,3.276893E-5,-3.887836E-4,1.6054817E-2,2.1569883E-3,-2.7009917E-2,-1.630767E-2,1.1012645E-2,-1.942885E-2,7.4751006E-4,-7.3782173E-3,4.4168937E-3,2.0367624E-2,1.6761166E-3,-7.3838886E-3,-2.4022281E-2,8.127344E-3,-1.4884703E-2,-1.024332E-2,-2.8132848E-2,-2.910818E-2,-5.967168E-3,-2.199738E-2,2.3767829E-2,-5.167098E-3,2.821233E-2,-9.35819E-3,1.2897438E-2,6.3654636E-3,-1.9189894E-2,-4.5099943E-3,-2.8978804E-2,-2.9649215E-3,1.919307E-2,-2.4573661E-2,5.2105384E-3,-5.3465907E-3,2.1983132E-2,-2.3607572E-3,-2.959663E-2,-3.4999542E-4,-2.2163605E-2,4.1250414E-3,-2.6653357E-2,-1.1974536E-2,-2.8261894E-2,-1.0837136E-2,-3.3058975E-2],"categories":[],"categories_nodes":[],"categories_segments":[],"categories_sizes":[],"default_left":[0,0,0,0,0,0,0,0,0,0,0,0,0,0,0,0,0,0,0,0,0,0,0,0,0,0,0,0,0,0,0,0,0,0,0,0,0,0,0,0,0,0,0,0,0,0,0,0,0,0,0,0,0,0,0,0,0,0,0,0,0,0,0,0,0,0,0,0,0,0,0,0,0,0,0,0,0,0,0,0,0,0,0,0,0,0,0,0,0,0,0,0,0,0,0,0,0,0,0,0,0,0,0,0,0,0,0,0,0,0,0],"id":12,"left_children":[1,3,5,7,9,11,13,15,17,19,21,23,25,27,29,31,33,35,37,39,41,43,45,-1,47,49,51,53,55,57,59,61,63,65,67,69,71,73,75,77,79,81,83,85,-1,87,89,91,93,95,97,99,-1,101,-1,103,105,107,-1,-1,109,-1,-1,-1,-1,-1,-1,-1,-1,-1,-1,-1,-1,-1,-1,-1,-1,-1,-1,-1,-1,-1,-1,-1,-1,-1,-1,-1,-1,-1,-1,-1,-1,-1,-1,-1,-1,-1,-1,-1,-1,-1,-1,-1,-1,-1,-1,-1,-1,-1,-1],"loss_changes":[1.0473275E3,5.547895E2,3.229474E1,1.6119543E2,1.05360886E2,1.8876537E1,8.904968E0,7.5750305E1,2.0662777E1,4.400473E1,2.2918278E1,5.3097496E0,9.692049E0,8.019363E0,2.1228027E0,6.6145874E1,3.965138E1,2.3212032E0,1.147526E1,1.9346687E1,6.92659E0,5.5157743E0,1.169659E1,0E0,1.6639175E0,4.9569054E0,9.278976E0,1.9521179E0,6.555107E0,4.71636E0,1.5808105E-2,6.588464E1,1.082003E1,3.1657143E1,1.0372206E1,3.3516488E0,3.9283562E0,8.981804E0,4.961562E0,2.2571136E1,1.5069495E1,8.968174E0,1.1873932E0,6.649985E0,0E0,4.0865135E0,2.9560328E0,2.1009524E0,1.2014275E0,1.1607056E0,4.875599E0,2.653162E0,0E0,1.9339905E0,0E0,5.3583717E0,4.3889313E0,1.5732002E-1,0E0,0E0,2.1728516E-2,0E0,0E0,0E0,0E0,0E0,0E0,0E0,0E0,0E0,0E0,0E0,0E0,0E0,0E0,0E0,0E0,0E0,0E0,0E0,0E0,0E0,0E0,0E0,0E0,0E0,0E0,0E0,0E0,0E0,0E0,0E0,0E0,0E0,0E0,0E0,0E0,0E0,0E0,0E0,0E0,0E0,0E0,0E0,0E0,0E0,0E0,0E0,0E0,0E0,0E0],"parents":[2147483647,0,0,1,1,2,2,3,3,4,4,5,5,6,6,7,7,8,8,9,9,10,10,11,11,12,12,13,13,14,14,15,15,16,16,17,17,18,18,19,19,20,20,21,21,22,22,24,24,25,25,26,26,27,27,28,28,29,29,30,30,31,31,32,32,33,33,34,34,35,35,36,36,37,37,38,38,39,39,40,40,41,41,42,42,43,43,45,45,46,46,47,47,48,48,49,49,50,50,51,51,53,53,55,55,56,56,57,57,60,60],"right_children":[2,4,6,8,10,12,14,16,18,20,22,24,26,28,30,32,34,36,38,40,42,44,46,-1,48,50,52,54,56,58,60,62,64,66,68,70,72,74,76,78,80,82,84,86,-1,88,90,92,94,96,98,100,-1,102,-1,104,106,108,-1,-1,110,-1,-1,-1,-1,-1,-1,-1,-1,-1,-1,-1,-1,-1,-1,-1,-1,-1,-1,-1,-1,-1,-1,-1,-1,-1,-1,-1,-1,-1,-1,-1,-1,-1,-1,-1,-1,-1,-1,-1,-1,-1,-1,-1,-1,-1,-1,-1,-1,-1,-1],"split_conditions":[1.745983E1,1.395E3,2.143E1,1.6941507E2,4.9938E-3,1.549E0,4.9938E-3,5E0,2.697E-4,1.947E3,1.2533061E1,1.301E0,6.4059E-3,1.3071419E1,2.309E1,1.645E1,1.4876E1,3.818E0,4.754723E1,2.8279717E0,5.96888E3,1.6E3,1.883E3,5.404102E-3,1.1150953E2,1.1424373E0,5.660569E0,3.0086398E2,9.884E-4,1.30216E3,-5.719421E1,2.992663E0,2.1863464E1,5.572E-3,5.0037856E0,4.382442E1,2.9678934E2,2.83E2,3.685224E2,2.227E0,6.381E3,1.976E0,4.147E-3,8.4198E2,-2.6182141E-2,6.9541E2,3.343E0,2.657E0,4.416E3,3.4366E0,2.350745E0,1.7514789E0,-2.2976194E-2,6.73E-1,-6.5783737E-3,1.198E1,2.44651E1,5.543E3,1.1106522E-2,-1.0837136E-2,5.25E-1,4.058313E-3,2.2175653E-2,-3.2078583E-2,3.276893E-5,-3.887836E-4,1.6054817E-2,2.1569883E-3,-2.7009917E-2,-1.630767E-2,1.1012645E-2,-1.942885E-2,7.4751006E-4,-7.3782173E-3,4.4168937E-3,2.0367624E-2,1.6761166E-3,-7.3838886E-3,-2.4022281E-2,8.127344E-3,-1.4884703E-2,-1.024332E-2,-2.8132848E-2,-2.910818E-2,-5.967168E-3,-2.199738E-2,2.3767829E-2,-5.167098E-3,2.821233E-2,-9.35819E-3,1.2897438E-2,6.3654636E-3,-1.9189894E-2,-4.5099943E-3,-2.8978804E-2,-2.9649215E-3,1.919307E-2,-2.4573661E-2,5.2105384E-3,-5.3465907E-3,2.1983132E-2,-2.3607572E-3,-2.959663E-2,-3.4999542E-4,-2.2163605E-2,4.1250414E-3,-2.6653357E-2,-1.1974536E-2,-2.8261894E-2,-1.0837136E-2,-3.3058975E-2],"split_indices":[5,7,5,2,4,10,4,5,4,7,5,3,4,2,5,3,5,9,1,2,8,7,7,0,0,11,2,0,4,6,1,2,2,4,2,1,0,7,2,3,8,3,4,6,0,6,3,3,8,3,11,2,0,10,0,3,5,8,0,0,10,0,0,0,0,0,0,0,0,0,0,0,0,0,0,0,0,0,0,0,0,0,0,0,0,0,0,0,0,0,0,0,0,0,0,0,0,0,0,0,0,0,0,0,0,0,0,0,0,0,0],"split_type":[0,0,0,0,0,0,0,0,0,0,0,0,0,0,0,0,0,0,0,0,0,0,0,0,0,0,0,0,0,0,0,0,0,0,0,0,0,0,0,0,0,0,0,0,0,0,0,0,0,0,0,0,0,0,0,0,0,0,0,0,0,0,0,0,0,0,0,0,0,0,0,0,0,0,0,0,0,0,0,0,0,0,0,0,0,0,0,0,0,0,0,0,0,0,0,0,0,0,0,0,0,0,0,0,0,0,0,0,0,0,0],"sum_hessian":[2.0382102E3,1.6109008E3,4.273095E2,1.2340602E3,3.7684058E2,5.57215E1,3.71588E2,1.0606161E3,1.734441E2,3.314188E2,4.5421795E1,3.0115412E1,2.5606087E1,1.326597E2,2.3892831E2,8.480177E2,2.1259833E2,4.438897E1,1.2905513E2,1.8077516E2,1.5064362E2,8.136915E0,3.728488E1,1.9949231E0,2.812049E1,1.3127487E1,1.24786E1,9.040855E1,4.2251152E1,8.375319E0,2.30553E2,8.3148956E2,1.6528124E1,1.9018152E2,2.2416805E1,5.2225156E0,3.9166454E1,1.0625463E2,2.2800508E1,1.3317744E2,4.759772E1,4.7607E1,1.0303661E2,3.2198782E0,4.917037E0,2.9333042E1,7.951838E0,3.7251017E0,2.4395388E1,2.465607E0,1.06618805E1,1.0747483E1,1.7311165E0,8.818304E1,2.2255137E0,1.8904749E1,2.3346403E1,7.1386213E0,1.2366972E0,1.2331879E0,2.2931981E2,9.059791E1,7.4089166E2,9.569418E0,6.9587073E0,8.1830536E1,1.0835098E2,6.6859937E0,1.5730812E1,2.4935176E0,2.728998E0,3.4923035E1,4.243421E0,6.446019E1,4.1794437E1,1.2833109E1,9.9674E0,7.377713E1,5.940031E1,3.0899778E1,1.6697943E1,2.6310373E1,2.1296625E1,1.0155303E2,1.4835838E0,1.2472943E0,1.9725838E0,1.246154E0,2.808689E1,4.974863E0,2.976975E0,1.4928523E0,2.2322493E0,1.2499892E0,2.31454E1,1.2424817E0,1.2231253E0,8.175282E0,2.4865987E0,1.2443938E0,9.503089E0,1.2386189E0,8.694442E1,1.2979424E1,5.925324E0,1.7487317E0,2.1597672E1,2.7439296E0,4.3946915E0,1.2331879E0,2.2808661E2],"tree_param":{"num_deleted":"0","num_feature":"12","num_nodes":"111","size_leaf_vector":"1"}},{"base_weights":[-2.640291E-3,3.6033645E-1,-1.3721565E0,6.1285496E-1,-9.5497745E-1,-6.551013E-1,-1.477873E0,7.253568E-1,-2.5421458E-1,-5.0825316E-1,-1.2293389E0,-1.1707844E0,-2.829979E-2,-1.244195E0,-1.6021498E0,-2.7569297E-1,8.4327585E-1,-8.359973E-1,-4.530875E-2,-6.579288E-1,6.0893965E-1,-1.0024915E0,-1.4618568E0,1.03051774E-1,-1.2980317E0,-5.754104E-1,5.9135854E-1,-1.3597282E0,-6.739383E-1,-9.066815E-1,-1.6234549E0,1.4612184E-1,-1.3434922E0,8.9283866E-1,-5.168097E-1,-9.2092264E-1,-1.7953363E-1,-1.7939219E-1,6.2170917E-1,-2.2575538E-1,-8.704352E-1,1.0542272E0,-1.9694116E-2,4.0000495E-1,-1.0636166E0,-1.5151781E0,-8.630432E-1,-5.3295624E-3,7.896366E-3,-4.8186633E-1,-1.4021432E0,-1.0103796E0,1.7838688E-1,9.586095E-1,-2.272138E-2,-9.224287E-1,-1.4593836E0,1.6724192E-2,-1.1110955E0,-1.1959869E0,1.0990918E-2,-1.0725136E-2,-1.6269625E0,5.237988E-3,-1.9730043E-2,-2.934781E-2,4.667675E-3,2.0571139E-2,7.883833E-3,-2.7677743E-2,8.142842E-3,-5.400228E-3,-2.0201718E-2,1.5569996E-2,-1.7087502E-2,-8.143503E-3,3.9812727E-3,4.91922E-3,2.5425563E-2,4.5394977E-3,-2.8828522E-2,-2.949808E-2,-6.281624E-3,-1.8367944E-3,2.5171012E-2,2.5343249E-2,-1.4353792E-2,-2.3420779E-2,-1.3758406E-3,-8.517615E-3,-3.0736398E-2,-2.7356602E-2,-4.2255423E-3,-2.2298409E-2,3.0704732E-3,-4.459863E-3,-2.9117214E-2,-2.8202692E-2,-9.339905E-3,1.5079901E-2,-1.6456181E-2,-1.7263395E-3,2.3855623E-2,-2.4039397E-2,1.558412E-3,-2.1177687E-2,-3.0711766E-2,1.5578951E-2,-1.2585725E-2,-2.7003225E-2,-2.1727616E-3,-1.1804237E-2,-2.7904935E-2,-1.0725136E-2,-3.261016E-2],"categories":[],"categories_nodes":[],"categories_segments":[],"categories_sizes":[],"default_left":[0,0,0,0,0,0,0,0,0,0,0,0,0,0,0,0,0,0,0,0,0,0,0,0,0,0,0,0,0,0,0,0,0,0,0,0,0,0,0,0,0,0,0,0,0,0,0,0,0,0,0,0,0,0,0,0,0,0,0,0,0,0,0,0,0,0,0,0,0,0,0,0,0,0,0,0,0,0,0,0,0,0,0,0,0,0,0,0,0,0,0,0,0,0,0,0,0,0,0,0,0,0,0,0,0,0,0,0,0,0,0,0,0,0,0],"id":13,"left_children":[1,3,5,7,9,11,13,15,17,19,21,23,25,27,29,31,33,35,37,39,41,43,45,47,49,51,53,55,57,59,61,63,65,67,69,71,73,75,77,79,81,83,-1,85,87,89,91,-1,-1,93,95,97,99,101,-1,103,105,107,109,111,-1,-1,113,-1,-1,-1,-1,-1,-1,-1,-1,-1,-1,-1,-1,-1,-1,-1,-1,-1,-1,-1,-1,-1,-1,-1,-1,-1,-1,-1,-1,-1,-1,-1,-1,-1,-1,-1,-1,-1,-1,-1,-1,-1,-1,-1,-1,-1,-1,-1,-1,-1,-1,-1,-1],"loss_changes":[1.0110718E3,5.346033E2,3.1334473E1,1.3181976E2,3.1161835E1,1.8245253E1,8.768616E0,1.412622E2,1.888834E1,1.7186228E1,6.9720306E0,5.158581E0,9.341056E0,7.8551483E0,2.0610962E0,5.7244312E1,7.252771E1,2.1252193E0,1.0453652E1,7.977516E0,9.822708E0,7.639633E0,1.144928E0,5.086449E-1,1.7254868E0,4.9695177E0,9.299706E0,3.4355316E0,7.38922E0,4.597369E0,4.9438477E-3,1.2282337E1,7.368767E0,6.942584E1,3.1184399E1,1.8245869E0,4.510961E0,8.448061E0,4.465939E0,1.7217163E1,1.9484245E1,2.4944E0,0E0,5.0200205E0,8.566101E0,9.7706604E-1,2.5417352E0,0E0,0E0,2.0698981E0,1.2295799E0,1.3860168E0,4.190313E0,2.8473358E0,0E0,6.5483055E0,1.0488434E0,5.6345887E0,3.439579E0,1.5630436E-1,0E0,0E0,1.0620117E-2,0E0,0E0,0E0,0E0,0E0,0E0,0E0,0E0,0E0,0E0,0E0,0E0,0E0,0E0,0E0,0E0,0E0,0E0,0E0,0E0,0E0,0E0,0E0,0E0,0E0,0E0,0E0,0E0,0E0,0E0,0E0,0E0,0E0,0E0,0E0,0E0,0E0,0E0,0E0,0E0,0E0,0E0,0E0,0E0,0E0,0E0,0E0,0E0,0E0,0E0,0E0,0E0],"parents":[2147483647,0,0,1,1,2,2,3,3,4,4,5,5,6,6,7,7,8,8,9,9,10,10,11,11,12,12,13,13,14,14,15,15,16,16,17,17,18,18,19,19,20,20,21,21,22,22,23,23,24,24,25,25,26,26,27,27,28,28,29,29,30,30,31,31,32,32,33,33,34,34,35,35,36,36,37,37,38,38,39,39,40,40,41,41,43,43,44,44,45,45,46,46,49,49,50,50,51,51,52,52,53,53,55,55,56,56,57,57,58,58,59,59,62,62],"right_children":[2,4,6,8,10,12,14,16,18,20,22,24,26,28,30,32,34,36,38,40,42,44,46,48,50,52,54,56,58,60,62,64,66,68,70,72,74,76,78,80,82,84,-1,86,88,90,92,-1,-1,94,96,98,100,102,-1,104,106,108,110,112,-1,-1,114,-1,-1,-1,-1,-1,-1,-1,-1,-1,-1,-1,-1,-1,-1,-1,-1,-1,-1,-1,-1,-1,-1,-1,-1,-1,-1,-1,-1,-1,-1,-1,-1,-1,-1,-1,-1,-1,-1,-1,-1,-1,-1,-1,-1,-1,-1,-1,-1,-1,-1,-1,-1],"split_conditions":[1.745983E1,1.642E3,2.143E1,2.0630966E2,1.947E3,1.549E0,4.9938E-3,2.225164E0,2.697E-4,4.9938E-3,2.423E3,1.545E0,6.7324885E-3,4.4145992E1,2.309E1,2.319E0,1.237E1,1.8257E1,4.773168E1,1.674E0,4.442E0,5.201E3,5.004E0,2.872405E2,1.1150953E2,3.5065E0,5.54868E0,1.921E0,9.5095445E-4,1.30216E3,-5.719421E1,5.962E3,1.091E0,5.13E0,3.414205E1,3.842E0,1.74E-4,2.89E0,2.9383826E2,2.04E0,1.077E0,1.36803E1,-1.9694116E-2,1.772E0,1.2793699E1,4.362826E-1,4.042966E1,-5.3295624E-3,7.896366E-3,9.0984276E1,4.416E3,1.892E1,6.071E3,2.514E0,-2.272138E-2,3.5841E0,1.5924E2,7.63871E0,3.14E-3,5.543E3,1.0990918E-2,-1.0725136E-2,5.25E-1,5.237988E-3,-1.9730043E-2,-2.934781E-2,4.667675E-3,2.0571139E-2,7.883833E-3,-2.7677743E-2,8.142842E-3,-5.400228E-3,-2.0201718E-2,1.5569996E-2,-1.7087502E-2,-8.143503E-3,3.9812727E-3,4.91922E-3,2.5425563E-2,4.5394977E-3,-2.8828522E-2,-2.949808E-2,-6.281624E-3,-1.8367944E-3,2.5171012E-2,2.5343249E-2,-1.4353792E-2,-2.3420779E-2,-1.3758406E-3,-8.517615E-3,-3.0736398E-2,-2.7356602E-2,-4.2255423E-3,-2.2298409E-2,3.0704732E-3,-4.459863E-3,-2.9117214E-2,-2.8202692E-2,-9.339905E-3,1.5079901E-2,-1.6456181E-2,-1.7263395E-3,2.3855623E-2,-2.4039397E-2,1.558412E-3,-2.1177687E-2,-3.0711766E-2,1.5578951E-2,-1.2585725E-2,-2.7003225E-2,-2.1727616E-3,-1.1804237E-2,-2.7904935E-2,-1.0725136E-2,-3.261016E-2],"split_indices":[5,7,5,2,7,10,4,2,4,4,7,3,4,2,5,3,3,3,1,3,9,8,3,0,0,3,2,3,4,6,1,8,10,5,2,9,4,5,0,5,10,5,0,3,5,2,1,0,0,0,8,5,8,3,0,2,6,3,4,8,0,0,10,0,0,0,0,0,0,0,0,0,0,0,0,0,0,0,0,0,0,0,0,0,0,0,0,0,0,0,0,0,0,0,0,0,0,0,0,0,0,0,0,0,0,0,0,0,0,0,0,0,0,0,0],"split_type":[0,0,0,0,0,0,0,0,0,0,0,0,0,0,0,0,0,0,0,0,0,0,0,0,0,0,0,0,0,0,0,0,0,0,0,0,0,0,0,0,0,0,0,0,0,0,0,0,0,0,0,0,0,0,0,0,0,0,0,0,0,0,0,0,0,0,0,0,0,0,0,0,0,0,0,0,0,0,0,0,0,0,0,0,0,0,0,0,0,0,0,0,0,0,0,0,0,0,0,0,0,0,0,0,0,0,0,0,0,0,0,0,0,0,0],"sum_hessian":[2.0319353E3,1.6068044E3,4.2513077E2,1.3484572E3,2.583474E2,5.5549004E1,3.695818E2,1.1937341E3,1.5472293E2,9.938232E1,1.5896509E2,2.9999718E1,2.5549284E1,1.3213655E2,2.3744522E2,1.2565694E2,1.0680773E3,4.008586E1,1.1463707E2,8.80032E1,1.1379123E1,8.315223E1,7.581286E1,2.7418635E0,2.7257854E1,1.3606871E1,1.1942413E1,1.08724655E2,2.3411894E1,8.352412E0,2.2909282E2,9.069333E1,3.4963608E1,1.0308553E3,3.722184E1,3.513736E1,4.9485016E0,9.605852E1,1.8578556E1,